Version 8.5.0
Id 
Min label:-5.76968e+06
Max label:0
bits:18
lda:0
0 ngram:
0 skip:
options: --quadratic nn
Checksum: 1909307005
:0
Constant:116060:92867.7
n^1:121005:310.029
n^1*n^11:114912:-2.60127
n^1*n^15:114924:1.17193
n^1*n^17:114922:-1.35862
n^1*n^21:114838:-0.721459
n^1*n^22:114837:-0.518164
n^10:121014:116.815
n^10*n^22:130624:-0.742378
n^11:121015:-1586.84
n^11*n^13:127148:-14.0823
n^11*n^14:127151:-0.703121
n^11*n^15:127150:-2.96381
n^11*n^16:127145:-0.924858
n^11*n^17:127144:-24.883
n^11*n^20:127189:-0.979942
n^11*n^21:127188:-12.7681
n^11*n^22:127191:-12.8777
n^12:121016:184.541
n^12*n^17:127253:-0.0982136
n^13:121017:-1751.57
n^13*n^13:127874:-3.07479
n^13*n^14:127873:-0.982961
n^13*n^15:127872:-1.00233
n^13*n^16:127879:-5.24937
n^13*n^17:127878:-10.2605
n^13*n^20:127995:-2.26489
n^13*n^21:127994:-9.08936
n^13*n^22:127993:-15.7498
n^13*n^24:127999:-0.360624
n^14:121018:127.933
n^14*n^17:128115:-2.29507
n^14*n^21:128015:-0.0923828
n^14*n^22:128012:-1.84095
n^15:121019:1523.35
n^15*n^15:128730:3.43486
n^15*n^17:128732:-6.45666
n^15*n^21:128672:-4.88422
n^15*n^22:128675:-5.98576
n^16:121020:-262.047
n^16*n^17:128841:-0.26202
n^16*n^21:128821:-1.14498
n^16*n^22:128822:-4.11659
n^17:121021:-1756.16
n^17*n^20:125255:-0.674696
n^17*n^21:125254:-4.87595
n^17*n^22:125253:-11.1019
n^18:121022:71.5775
n^19:121023:287.64
n^19*n^22:126063:-1.8245
n^2:121006:137.686
n^2*n^22:114984:-0.216984
n^20:121024:-89.214
n^20*n^22:126594:-0.53186
n^21:121025:-1682.78
n^21*n^22:126737:-8.64229
n^22:121026:-2413.08
n^22*n^22:123300:-5.71722
n^22*n^23:123301:-1.07261
n^22*n^24:123298:-0.0783364
n^23:121027:140.945
n^24:121028:82.8145
n^3:121007:-374.627
n^3*n^13:115652:-2.28503
n^3*n^17:115648:-0.218658
n^3*n^22:115647:-1.5964
n^4:121008:-780.577
n^4*n^11:116135:-4.87101
n^4*n^13:116137:-6.53835
n^4*n^17:116141:-3.58627
n^4*n^21:116177:-4.19598
n^4*n^22:116178:-9.11952
n^4*n^7:116131:-4.51019
n^5:121009:363.182
n^5*n^13:116250:-0.0333856
n^5*n^22:116321:-2.56557
n^5*n^7:116240:-0.763287
n^6:121010:653.885
n^6*n^11:129153:-2.17183
n^6*n^13:129167:-1.29306
n^6*n^15:129165:8.90927
n^6*n^17:129163:-5.95434
n^6*n^21:129271:-3.71179
n^6*n^22:129268:-8.60798
n^6*n^7:129157:-9.75479
n^6*n^8:129154:6.02711
n^7:121011:-2181.92
n^7*n^11:129406:-9.98322
n^7*n^12:129393:-0.831623
n^7*n^13:129392:-11.8948
n^7*n^14:129395:-2.07675
n^7*n^15:129394:-5.67156
n^7*n^16:129397:-1.28703
n^7*n^17:129396:-7.38201
n^7*n^19:129398:-0.16364
n^7*n^20:129289:-1.41526
n^7*n^21:129288:-3.59647
n^7*n^22:129291:-11.8126
n^7*n^7:129402:-1.08003
n^7*n^8:129405:-4.48109
n^8:121012:1341.83
n^8*n^11:130027:-0.242124
n^8*n^15:130023:12.4101
n^8*n^17:130017:-3.54223
n^8*n^21:129949:-4.53724
n^8*n^22:129950:-5.24605
n^9:121013:55.4221
n^9*n^22:130093:-0.214188
