Version 8.5.0
Id 
Min label:-10404.9
Max label:0
bits:18
lda:0
0 ngram:
0 skip:
options: --quadratic nn
Checksum: 3966479081
:0
114837:-0.0586995
114913:-0.0202085
114915:-0.0395494
114918:-0.00459299
114922:-0.0258744
114924:-0.0230453
114925:-0.0155659
114926:-0.0538552
114936:-0.00155995
115024:0.000984722
115025:0.00503835
115031:0.0249741
116060:-990.222
116247:-0.00653008
116321:-0.00528751
121005:-9.62105
121006:4.35825
121007:-1.24647
121008:-2.09955
121009:-2.14462
121010:-2.27492
121011:-0.798651
121012:-9.60089
121013:-1.16473
121014:-5.07322
121015:-1.37579
121016:-1.18476
121017:-8.66699
121018:-2.82894
121019:-1.05679
121020:-0.512906
121021:-0.573955
121022:-2.31378
121023:-1.11787
121024:-1.34934
121025:-0.70364
121026:-7.72873
125253:-0.00898383
127993:-0.0366604
128675:-0.00572622
129950:-0.0420287
130017:-0.00335304
130021:-0.0239306
130022:-0.0108756
130023:-0.0122914
130026:-0.00384306
130619:-0.00202244
130624:-0.0076183
