Version 8.5.0
Id 
Min label:-10404.9
Max label:0
bits:18
lda:0
0 ngram:
0 skip:
options: --quadratic nn
Checksum: 3966479081
:0
114837:-0.0101762
114838:-0.00707799
114839:-0.00734351
114912:-0.00774004
114913:-0.00872844
114914:-0.00841254
114915:-0.00849351
114916:-0.00646043
114917:-0.00376141
114918:-0.00938521
114919:-0.00811502
114920:-0.00832716
114921:-0.00844984
114922:-0.0135753
114923:-0.00572873
114924:-0.0128345
114925:-0.0109938
114926:-0.0113665
114927:-0.00727559
114936:-0.00874622
114937:-0.00251949
114938:-0.00481446
114984:-0.00168751
114986:-0.000580561
114987:-0.000866186
115012:-0.00106013
115013:-0.000562522
115024:-0.00134944
115025:-0.00123976
115026:-0.000839779
115027:-0.00121948
115028:-0.000799758
115029:-0.000599754
115030:-0.000384718
115031:-0.0011901
115032:-0.000664065
115033:-0.000596468
115034:-0.000756748
115035:-0.00108433
115036:-0.00118132
115037:-0.000746206
115038:-0.00136566
115039:-0.000763665
115644:-0.00395816
115645:-0.00511255
115647:-0.00731435
115648:-0.00679407
115649:-0.00305025
115650:-0.00574865
115651:-0.00624518
115652:-0.00694231
115653:-0.00568772
115654:-0.00999255
115655:-0.00877712
115656:-0.00626959
115657:-0.00736766
115658:-0.00475753
115659:-0.00759593
115660:-0.00769316
115661:-0.00525328
115662:-0.00553006
115663:-0.00228802
115666:-0.00324168
116060:-292.568
116128:-0.00337626
116129:-0.00681474
116130:-0.00247284
116131:-0.00356002
116132:-0.0067439
116133:-0.00478615
116134:-0.00653307
116135:-0.0054128
116136:-0.00483276
116137:-0.00739604
116138:-0.00794658
116139:-0.00785917
116140:-0.00288204
116141:-0.00637022
116142:-0.00661503
116143:-0.00559419
116176:-0.00523106
116177:-0.00347045
116178:-0.00671312
116240:-0.00516709
116241:-0.00297385
116242:-0.00508503
116244:-0.00511456
116245:-0.00790768
116246:-0.00580435
116247:-0.00872597
116248:-0.00792698
116249:-0.0108501
116250:-0.00907568
116251:-0.00575876
116252:-0.0065352
116253:-0.00737398
116254:-0.00728033
116255:-0.00417426
116321:-0.00878827
116322:-0.00441848
116323:-0.00587761
121005:-1.16076
121006:-0.113987
121007:-0.883296
121008:-0.982417
121009:-1.20026
121010:-0.340333
121011:-0.532934
121012:-1.06275
121013:-0.813337
121014:-1.00461
121015:-0.835353
121016:-0.724153
121017:-1.35897
121018:-1.52088
121019:-1.09786
121020:-0.524503
121021:-1.09233
121022:-1.08401
121023:-0.804806
121024:-0.755685
121025:-0.552302
121026:-0.870315
123300:-0.00273741
125240:-0.00758948
125241:-0.00805584
125242:-0.00504386
125253:-0.010041
125254:-0.00610212
125255:-0.00612855
125860:-0.00410588
125861:-0.00588825
125912:-0.00652007
125914:-0.00541574
125915:-0.00470224
125970:-0.00267372
126060:-0.00379368
126061:-0.00402783
126063:-0.00713464
126592:-0.00208241
126593:-0.0035143
126594:-0.00502436
126737:-0.00607457
126738:-0.00204505
127138:-0.00256457
127144:-0.00690474
127145:-0.00327197
127146:-0.00468927
127147:-0.0062854
127148:-0.00697079
127149:-0.0048245
127150:-0.00718627
127151:-0.00747601
127188:-0.00368453
127189:-0.00400192
127191:-0.00638156
127248:-0.00194011
127249:-0.00710005
127250:-0.00600919
127251:-0.00703866
127252:-0.00219707
127253:-0.00750317
127254:-0.0040019
127255:-0.00372425
127336:-0.00450526
127337:-0.00306176
127338:-0.00579567
127872:-0.011141
127873:-0.0110164
127874:-0.00645637
127876:-0.00670578
127877:-0.00851323
127878:-0.0111173
127879:-0.00406134
127993:-0.00903589
127994:-0.0053617
127995:-0.00702722
128012:-0.00763501
128014:-0.0070234
128015:-0.00580924
128112:-0.00817697
128113:-0.00687873
128114:-0.00431259
128115:-0.011828
128116:-0.00803592
128117:-0.0128753
128672:-0.00632191
128673:-0.006841
128675:-0.00941197
128730:-0.00443916
128732:-0.0109039
128733:-0.00508534
128734:-0.00762641
128735:-0.00598891
128820:-0.00259765
128821:-0.00292324
128822:-0.00488353
128840:-0.00194691
128841:-0.00349042
128842:-0.00287924
128843:-0.0029759
129152:-0.00341371
129153:-0.00314042
129154:-0.00266459
129155:-0.00200349
129156:-0.00290388
129157:-0.00198744
129160:-0.00258441
129161:-0.00260001
129162:-0.00192852
129163:-0.00418216
129164:-0.00323975
129165:-0.00347966
129166:-0.00243379
129167:-0.00336568
129268:-0.00399043
129270:-0.00183554
129271:-0.00225165
129288:-0.00302194
129289:-0.00364292
129291:-0.00485808
129392:-0.00539946
129393:-0.00381776
129394:-0.00630371
129395:-0.00504127
129396:-0.00569827
129397:-0.00277075
129398:-0.00289183
129399:-0.00425718
129402:-0.00130008
129404:-0.0042106
129405:-0.00497895
129406:-0.00333724
129407:-0.00475058
129948:-0.00539452
129949:-0.00508727
129950:-0.00822546
130016:-0.00343587
130017:-0.00886078
130018:-0.0071799
130019:-0.00589466
130020:-0.00572818
130021:-0.00782479
130022:-0.00936852
130023:-0.010109
130024:-0.00393224
130025:-0.00662535
130026:-0.00646486
130027:-0.00614794
130093:-0.0051435
130094:-0.00412075
130095:-0.00494713
130128:-0.0043636
130129:-0.00542247
130130:-0.00727749
130131:-0.00288774
130132:-0.00583134
130133:-0.00738537
130134:-0.00660653
130135:-0.00435951
130136:-0.00438432
130137:-0.00582511
130138:-0.00247106
130612:-0.0037077
130613:-0.00663027
130616:-0.00981206
130617:-0.00669278
130618:-0.00461837
130619:-0.00824802
130620:-0.00681711
130621:-0.00603462
130622:-0.00411043
130623:-0.00567021
130624:-0.00694516
130626:-0.00649747
130627:-0.00410585
