Version 8.5.0
Id 
Min label:-10404.9
Max label:0
bits:18
lda:0
0 ngram:
0 skip:
options: --quadratic nn
Checksum: 3966479081
:0
114837:-0.00602179
114838:-0.00517621
114839:-0.00500892
114912:-0.00534927
114913:-0.00570256
114914:-0.005831
114915:-0.00503771
114916:-0.00442338
114917:-0.00213229
114918:-0.00649542
114919:-0.00546489
114920:-0.00597402
114921:-0.00561776
114922:-0.0100956
114923:-0.00396028
114924:-0.00930859
114925:-0.00761498
114926:-0.00746509
114927:-0.00490197
114936:-0.00646293
114937:-0.00238153
114938:-0.00241264
114984:-0.00156431
114986:-0.000747456
114987:-0.00152286
115012:-0.000327255
115013:-0.00128183
115024:-0.00234402
115025:-0.00229726
115026:-0.00145851
115027:-0.00133921
115028:-0.000948433
115029:-0.00170308
115030:-0.000361803
115031:-0.00295944
115032:-0.000347217
115033:-0.00133055
115034:-0.00105463
115035:-0.00189325
115036:-0.00171085
115037:-0.00112139
115038:-0.00110688
115039:-0.00139693
115644:-0.0040423
115645:-0.00481068
115647:-0.00546858
115648:-0.00703941
115649:-0.00291241
115650:-0.0059599
115651:-0.00570965
115652:-0.00582506
115653:-0.00543457
115654:-0.0101994
115655:-0.00841503
115656:-0.00603522
115657:-0.00557906
115658:-0.00448779
115659:-0.00692482
115660:-0.00738213
115661:-0.00475758
115662:-0.00597585
115663:-0.00178265
115666:-0.00278695
116060:-255.395
116128:-0.00234977
116129:-0.00573195
116130:-0.00176709
116131:-0.00291072
116132:-0.00461334
116133:-0.00386866
116134:-0.00511336
116135:-0.00453912
116136:-0.00389295
116137:-0.0056234
116138:-0.00664316
116139:-0.00688912
116140:-0.00227627
116141:-0.0056805
116142:-0.00537346
116143:-0.00501099
116176:-0.00433086
116177:-0.00290028
116178:-0.00447411
116240:-0.00466085
116241:-0.00219655
116242:-0.00401811
116244:-0.00425693
116245:-0.00641088
116246:-0.00489735
116247:-0.0062634
116248:-0.00698199
116249:-0.00944674
116250:-0.0071249
116251:-0.00483314
116252:-0.00605406
116253:-0.0061108
116254:-0.00666271
116255:-0.0037521
116321:-0.00618541
116322:-0.00400142
116323:-0.00499998
121005:-0.877462
121006:-0.243412
121007:-0.895853
121008:-0.902936
121009:-1.10675
121010:-0.335289
121011:-0.538474
121012:-0.834095
121013:-0.767619
121014:-0.881954
121015:-0.795187
121016:-0.683006
121017:-1.14515
121018:-1.3746
121019:-1.02743
121020:-0.543496
121021:-1.06316
121022:-0.977983
121023:-0.80185
121024:-0.716666
121025:-0.575518
121026:-0.669123
123300:-0.000984096
125240:-0.00771101
125241:-0.0072421
125242:-0.00444983
125253:-0.00744356
125254:-0.00637757
125255:-0.00563644
125860:-0.0029116
125861:-0.00519393
125912:-0.00422633
125914:-0.0044047
125915:-0.00416609
125970:-0.00201101
126060:-0.00384235
126061:-0.00349117
126063:-0.00517076
126592:-0.00120141
126593:-0.00314484
126594:-0.00321718
126737:-0.00458914
126738:-0.0012533
127138:-0.00173491
127144:-0.00655912
127145:-0.00289258
127146:-0.00426921
127147:-0.00526941
127148:-0.00542755
127149:-0.00408972
127150:-0.00648119
127151:-0.0064818
127188:-0.00330133
127189:-0.00324847
127191:-0.00437148
127248:-0.00103048
127249:-0.0055269
127250:-0.00495818
127251:-0.00624712
127252:-0.00160035
127253:-0.00710376
127254:-0.00300146
127255:-0.00317083
127336:-0.00373824
127337:-0.00259783
127338:-0.00385857
127872:-0.00909394
127873:-0.00867282
127874:-0.00434662
127876:-0.00543465
127877:-0.00646359
127878:-0.00936265
127879:-0.00307606
127993:-0.00587468
127994:-0.00443539
127995:-0.00548414
128012:-0.0051234
128014:-0.00600555
128015:-0.00538878
128112:-0.00673334
128113:-0.00621735
128114:-0.00377703
128115:-0.0110918
128116:-0.00660182
128117:-0.0116287
128672:-0.00636506
128673:-0.00609955
128675:-0.0067219
128730:-0.00351863
128732:-0.0107884
128733:-0.00480817
128734:-0.00740541
128735:-0.00487298
128820:-0.00200512
128821:-0.00303332
128822:-0.00336608
128840:-0.00118483
128841:-0.00339444
128842:-0.00218068
128843:-0.00270553
129152:-0.00241535
129153:-0.00255488
129154:-0.00145042
129155:-0.00120755
129156:-0.00172171
129157:-0.00135367
129160:-0.0017298
129161:-0.00203323
129162:-0.00135917
129163:-0.00372427
129164:-0.00239214
129165:-0.00279575
129166:-0.00180757
129167:-0.00221019
129268:-0.00250828
129270:-0.0010459
129271:-0.00174907
129288:-0.00284984
129289:-0.00316172
129291:-0.00325001
129392:-0.00428989
129393:-0.00338242
129394:-0.0060714
129395:-0.00441455
129396:-0.00560353
129397:-0.00250248
129398:-0.00255433
129399:-0.003577
129402:-0.000523971
129404:-0.00377699
129405:-0.00346761
129406:-0.00283896
129407:-0.00392155
129948:-0.00361362
129949:-0.00373968
129950:-0.00490124
130016:-0.00212785
130017:-0.00663309
130018:-0.00485232
130019:-0.00423531
130020:-0.00386343
130021:-0.00505144
130022:-0.00664865
130023:-0.0074607
130024:-0.00193699
130025:-0.00463887
130026:-0.00417717
130027:-0.00425571
130093:-0.00329982
130094:-0.00383461
130095:-0.0042002
130128:-0.00388818
130129:-0.00440017
130130:-0.00697744
130131:-0.00229151
130132:-0.00503855
130133:-0.00632438
130134:-0.00506695
130135:-0.00356648
130136:-0.00361085
130137:-0.00464983
130138:-0.00157876
130612:-0.00235567
130613:-0.00541979
130616:-0.00800273
130617:-0.00538822
130618:-0.0034631
130619:-0.00609338
130620:-0.00526142
130621:-0.00514649
130622:-0.00333268
130623:-0.00466718
130624:-0.00443515
130626:-0.00527727
130627:-0.00341877
