Version 8.5.0
Id 
Min label:-10404.9
Max label:0
bits:18
lda:0
0 ngram:
0 skip:
options: --quadratic nn
Checksum: 3966479081
:0
114837:-0.0243742
114838:-0.0105813
114839:-0.0121763
114912:-0.012569
114913:-0.0166319
114914:-0.0133842
114915:-0.019812
114916:-0.0104734
114917:-0.00661907
114918:-0.016281
114919:-0.0142272
114920:-0.0130191
114921:-0.0148935
114922:-0.0213365
114923:-0.00872293
114924:-0.0214321
114925:-0.0193922
114926:-0.0244378
114927:-0.0119226
114936:-0.0139158
114937:-0.000715586
114938:-0.0111343
114986:0.00282217
114987:0.00506263
115012:-0.000370106
115013:0.00430803
115024:0.00503211
115025:0.00569265
115026:0.00428176
115027:0.0012493
115028:0.00283914
115029:0.00630257
115030:0.00244066
115031:0.00892795
115032:0.00131458
115033:0.00482778
115034:0.00306147
115035:0.00457983
115036:0.00318146
115037:0.00369555
115039:0.00444154
115644:0.000688467
115645:-0.000597557
115647:-0.0110516
115648:0.000623335
115649:0.000445496
115650:0.000264087
115651:-0.00213559
115652:-0.00743745
115653:-0.000628765
115654:-0.00112651
115655:-0.00332927
115656:-0.00047858
115657:-0.0108141
115658:-0.000183923
115659:-0.00479251
115660:-0.00217666
115661:-0.00164883
115662:0.000617397
115663:-0.00112732
115666:-0.00049728
116060:-441.278
116128:-0.00227914
116129:-0.00441188
116130:-0.00164412
116131:-0.00103937
116132:-0.011126
116133:-0.00214042
116134:-0.00614381
116135:-0.00253659
116136:-0.00244072
116137:-0.00978591
116138:-0.00578991
116139:-0.0041096
116140:-0.000516789
116141:-0.00193401
116142:-0.00469573
116143:-0.00189355
116176:-0.00275912
116177:-0.000681571
116178:-0.0113197
116240:-0.00133772
116241:-0.00189574
116242:-0.00314679
116244:-0.00212808
116245:-0.00714013
116246:-0.00238139
116247:-0.014256
116248:-0.00375357
116249:-0.00747451
116250:-0.0117493
116251:-0.00266358
116252:-0.00187572
116253:-0.00492779
116254:-0.0017923
116255:-0.000609418
116321:-0.0146444
116322:-0.000641864
116323:-0.00281688
121005:-2.38934
121006:0.265365
121007:-0.753524
121008:-1.12497
121009:-1.32567
121010:-0.424734
121011:-0.464123
121012:-2.09786
121013:-0.767404
121014:-1.35768
121015:-0.799113
121016:-0.716714
121017:-2.29614
121018:-1.763
121019:-1.09378
121020:-0.40954
121021:-0.903092
121022:-1.25292
121023:-0.690705
121024:-0.763219
121025:-0.428735
121026:-1.75305
123300:-0.00608359
125240:0.000351751
125241:-0.00268079
125242:-0.000794758
125253:-0.0147691
125254:0.00149119
125255:-0.000656438
125860:-0.00293078
125861:-0.0020884
125912:-0.0110932
125914:-0.00296173
125915:-0.00127053
125970:-0.000404809
126060:0.000690528
126061:-0.00057253
126063:-0.0106079
126592:-0.000729792
126594:-0.00793999
126737:-0.008778
126738:-0.000894341
127138:-0.000690331
127144:-0.000185349
127146:-0.000400227
127147:-0.00312539
127148:-0.00802399
127149:-0.00126235
127150:-0.00200273
127151:-0.00379403
127189:-0.00112894
127191:-0.00989622
127248:-0.000656607
127249:-0.00835056
127250:-0.00320805
127251:-0.00230173
127253:-0.000622237
127254:-0.00200195
127255:-0.00026028
127336:-0.00146907
127338:-0.00906001
127872:-0.0134808
127873:-0.0148326
127874:-0.0115828
127876:-0.00717281
127877:-0.0113679
127878:-0.0117865
127879:-0.00395663
127993:-0.0190788
127994:-0.00531592
127995:-0.00845408
128012:-0.0129318
128014:-0.00397085
128015:-0.00151272
128112:-0.00604711
128113:-0.00258799
128114:-0.00108098
128115:-0.00403535
128116:-0.00610371
128117:-0.00723804
128673:-0.002348
128675:-0.015011
128730:-0.00182507
128732:-0.000825068
128733:-0.000135316
128734:-0.000937521
128735:-0.00317422
128821:0.00092566
128822:-0.00696597
128840:-0.00102801
128841:0.00068459
128842:-0.000587901
128843:0.000280121
129152:-0.003365
129153:-0.00142742
129154:-0.00446513
129155:-0.000811741
129156:-0.00334219
129157:-0.000331846
129160:-0.00184278
129161:-0.000622708
129162:-6.82581e-05
129163:-0.00157005
129164:-0.00253569
129165:-0.00166501
129166:-0.00124987
129167:-0.00455002
129268:-0.00686408
129270:-0.000869599
129271:-0.000793105
129288:0.000426944
129289:-0.000317436
129291:-0.00745063
129392:-0.0059298
129393:-0.000159281
129394:-0.000555717
129395:-0.00173744
129396:0.000367565
129397:0.000681924
129398:0.000108041
129399:-0.00137122
129402:-0.000145443
129404:-9.14955e-05
129405:-0.00746359
129406:-4.34844e-05
129407:-0.00286222
129948:-0.00833377
129949:-0.00720324
129950:-0.0189964
130016:-0.00483541
130017:-0.0129042
130018:-0.0119494
130019:-0.00860336
130020:-0.00879653
130021:-0.0161711
130022:-0.0156594
130023:-0.0158051
130024:-0.00864741
130025:-0.00999856
130026:-0.0116201
130027:-0.00928962
130093:-0.00773827
130095:-0.0013819
130128:-0.000154273
130129:-0.0026043
130132:-0.00153206
130133:-0.00362198
130134:-0.00749355
130135:-0.00107931
130136:-0.00097387
130137:-0.00419463
130138:-0.000654822
130612:-0.00420497
130613:-0.0048864
130616:-0.00950183
130617:-0.00523819
130618:-0.00350498
130619:-0.0124489
130620:-0.0064771
130621:-0.00375129
130622:-0.00216992
130623:-0.00329074
130624:-0.0127722
130626:-0.00515956
130627:-0.00199252
