Version 8.5.0
Id 
Min label:-10467
Max label:0
bits:18
lda:0
0 ngram:
0 skip:
options: --quadratic nn
Checksum: 4512388
:0
114837:-0.0096063
114838:-0.00685231
114839:-0.00735203
114912:-0.00607986
114913:-0.00865904
114914:-0.00877331
114915:-0.00852413
114916:-0.00668929
114917:-0.00367572
114918:-0.0104175
114919:-0.00807448
114920:-0.0082231
114921:-0.00839052
114922:-0.0125408
114923:-0.00562908
114924:-0.0126167
114925:-0.0109985
114926:-0.0103082
114927:-0.00718967
114936:-0.00798983
114937:-0.0024917
114938:-0.00475712
114984:-0.00167993
114986:-0.000551307
114987:-0.000663548
115012:-0.000862306
115013:-0.000587712
115024:-0.00140362
115025:-0.00127969
115026:-0.000896417
115027:-0.00118819
115028:-0.000760403
115029:-0.000663044
115030:-0.000277924
115031:-0.00130435
115032:-0.000401785
115033:-0.000763158
115034:-0.000759725
115035:-0.00108973
115036:-0.0011195
115037:-0.000819137
115038:-0.00143451
115039:-0.000778005
115644:-0.00415482
115645:-0.00502993
115647:-0.00779842
115648:-0.00757908
115649:-0.002772
115650:-0.0056141
115651:-0.0060614
115652:-0.00704205
115653:-0.00551971
115654:-0.0083234
115655:-0.00938898
115656:-0.00594826
115657:-0.0075799
115658:-0.00466525
115659:-0.00777591
115660:-0.00811098
115661:-0.00511347
115662:-0.00580944
115663:-0.00215123
115666:-0.00319166
116060:-293.812
116128:-0.00358156
116129:-0.00671239
116130:-0.00244054
116131:-0.00361091
116132:-0.00642281
116133:-0.00468862
116134:-0.005681
116135:-0.00531045
116136:-0.0046551
116137:-0.00766741
116138:-0.0078253
116139:-0.00751907
116140:-0.00276315
116141:-0.00678144
116142:-0.00660277
116143:-0.00539403
116176:-0.00514628
116177:-0.00375084
116178:-0.00551691
116240:-0.00421739
116241:-0.00287764
116242:-0.00491481
116244:-0.00500045
116245:-0.00776145
116246:-0.00644054
116247:-0.0082054
116248:-0.0100702
116249:-0.0103448
116250:-0.00946798
116251:-0.00571394
116252:-0.00684394
116253:-0.00725773
116254:-0.00699835
116255:-0.00412191
116321:-0.00868629
116322:-0.0041193
116323:-0.00582392
121005:-1.1821
121006:-0.134289
121007:-0.910181
121008:-1.04299
121009:-1.20734
121010:-0.349551
121011:-0.56515
121012:-1.06332
121013:-0.830357
121014:-0.961386
121015:-0.846606
121016:-0.807053
121017:-1.22372
121018:-1.47818
121019:-1.30976
121020:-0.4584
121021:-1.23145
121022:-1.10454
121023:-0.80578
121024:-0.842807
121025:-0.610091
121026:-1.07866
123300:-0.00396767
125240:-0.0075591
125241:-0.0081988
125242:-0.00633675
125253:-0.00973297
125254:-0.00581858
125255:-0.00590659
125860:-0.00403479
125861:-0.00535906
125912:-0.00702751
125914:-0.00557529
125915:-0.0043525
125970:-0.0024846
126060:-0.00354549
126061:-0.0039165
126063:-0.00698015
126592:-0.00238782
126593:-0.00310438
126594:-0.00676065
126737:-0.00578528
126738:-0.0022447
127138:-0.00243081
127144:-0.00757247
127145:-0.00352799
127146:-0.00454126
127147:-0.00597255
127148:-0.00664255
127149:-0.00454295
127150:-0.00761874
127151:-0.00737691
127188:-0.00361168
127189:-0.00434525
127191:-0.00515512
127248:-0.00220176
127249:-0.00684639
127250:-0.00583822
127251:-0.00766914
127252:-0.00205289
127253:-0.0075091
127254:-0.00492122
127255:-0.00418708
127336:-0.0044025
127337:-0.0031308
127338:-0.0064673
127872:-0.0107469
127873:-0.0108614
127874:-0.00500467
127876:-0.00649494
127877:-0.00821591
127878:-0.0102999
127879:-0.0039325
127993:-0.00877187
127994:-0.00508103
127995:-0.00697511
128012:-0.0106044
128014:-0.00816641
128015:-0.00543122
128112:-0.00799319
128113:-0.00736716
128114:-0.00418859
128115:-0.00906742
128116:-0.00735738
128117:-0.0116702
128672:-0.00574703
128673:-0.0065713
128675:-0.0105706
128730:-0.00609438
128732:-0.00970574
128733:-0.00464997
128734:-0.00728373
128735:-0.00785033
128820:-0.00220521
128821:-0.00252845
128822:-0.00431498
128840:-0.00134324
128841:-0.00333213
128842:-0.00271694
128843:-0.00272316
129152:-0.00317775
129153:-0.00267619
129154:-0.00266004
129155:-0.00299825
129156:-0.00289794
129157:-0.00120919
129160:-0.0020962
129161:-0.00243839
129162:-0.00159994
129163:-0.0038052
129164:-0.00296569
129165:-0.00332161
129166:-0.0021807
129167:-0.00317553
129268:-0.00333557
129270:-0.00170538
129271:-0.00155252
129288:-0.00296549
129289:-0.00377194
129291:-0.00473739
129392:-0.00551766
129393:-0.00375416
129394:-0.00717599
129395:-0.00476052
129396:-0.00626176
129397:-0.0024062
129398:-0.00293131
129399:-0.00428805
129402:-0.00124258
129404:-0.00465892
129405:-0.00501367
129406:-0.00420068
129407:-0.00520491
129948:-0.00526158
129949:-0.00378901
129950:-0.00725601
130016:-0.00326462
130017:-0.00850776
130018:-0.00671596
130019:-0.00651044
130020:-0.00551742
130021:-0.00762441
130022:-0.00837079
130023:-0.00972823
130024:-0.00371738
130025:-0.00582627
130026:-0.00733064
130027:-0.00636839
130093:-0.00507939
130094:-0.00364009
130095:-0.00481941
130128:-0.00375624
130129:-0.00530494
130130:-0.00710217
130131:-0.00272072
130132:-0.00559089
130133:-0.0073192
130134:-0.00649916
130135:-0.00424799
130136:-0.0042862
130137:-0.00648063
130138:-0.00235277
130612:-0.00317384
130613:-0.00592706
130616:-0.00709262
130617:-0.010013
130618:-0.00444353
130619:-0.00654795
130620:-0.00638138
130621:-0.00477077
130622:-0.00397472
130623:-0.00546884
130624:-0.00678351
130626:-0.00519523
130627:-0.00535312
