Version 8.5.0
Id 
Min label:-10467
Max label:0
bits:18
lda:0
0 ngram:
0 skip:
options: --quadratic nn
Checksum: 4512388
:0
114837:-0.0494458
114913:-0.0197957
114915:-0.0422873
114918:-0.0125193
114921:-0.000534867
114922:-0.023652
114924:-0.0232734
114925:-0.0167219
114926:-0.0475102
115025:0.0146132
115031:0.0195616
115657:-0.00145439
116060:-988.598
116247:-0.00414899
116321:-0.00100198
121005:-9.75846
121006:4.21994
121007:-1.21857
121008:-2.15403
121009:-2.08064
121010:-2.18772
121011:-0.805771
121012:-9.70023
121013:-1.20737
121014:-4.60359
121015:-1.41612
121016:-1.21563
121017:-8.22586
121018:-2.67619
121019:-1.076
121020:-0.489513
121021:-0.778975
121022:-2.29624
121023:-1.1061
121024:-1.39409
121025:-0.66262
121026:-9.05409
125253:-0.00554641
127993:-0.0345063
128012:-0.014278
128675:-0.00953074
129950:-0.0300712
130017:-0.00503848
130021:-0.0270831
130022:-0.00497685
130023:-0.0122475
130026:-0.0140034
130624:-0.00341556
