Version 8.5.0
Id 
Min label:-10467
Max label:0
bits:18
lda:0
0 ngram:
0 skip:
options: --quadratic nn
Checksum: 4512388
:0
114837:-0.00581761
114838:-0.00511388
114839:-0.00516185
114912:-0.004305
114913:-0.00574829
114914:-0.00619708
114915:-0.00523594
114916:-0.00478257
114917:-0.00264329
114918:-0.00718852
114919:-0.00560051
114920:-0.00581707
114921:-0.00572898
114922:-0.00917201
114923:-0.00443426
114924:-0.00885067
114925:-0.00748434
114926:-0.00664885
114927:-0.00502537
114936:-0.00598069
114937:-0.00331614
114938:-0.00291857
114984:-0.00234564
114986:-0.0016044
114987:-0.00248249
115012:-0.00106476
115013:-0.00192905
115024:-0.00308342
115025:-0.00352023
115026:-0.00227221
115027:-0.00210305
115028:-0.00178038
115029:-0.00234666
115030:-0.00118958
115031:-0.00371214
115032:-0.00104334
115033:-0.00198715
115034:-0.00188188
115035:-0.00258035
115036:-0.0023045
115037:-0.00197832
115038:-0.00213065
115039:-0.00215357
115644:-0.00468776
115645:-0.00495241
115647:-0.0060437
115648:-0.008144
115649:-0.00350008
115650:-0.00574693
115651:-0.00572577
115652:-0.00602141
115653:-0.00539931
115654:-0.00833082
115655:-0.00880874
115656:-0.00580221
115657:-0.00596279
115658:-0.00462382
115659:-0.00705206
115660:-0.00766373
115661:-0.00490325
115662:-0.00606946
115663:-0.0022927
115666:-0.00335182
116060:-222.27
116128:-0.00313904
116129:-0.00575958
116130:-0.0022962
116131:-0.00337891
116132:-0.00466433
116133:-0.00418186
116134:-0.0046635
116135:-0.0046981
116136:-0.00411253
116137:-0.00598081
116138:-0.00658601
116139:-0.00672442
116140:-0.00294594
116141:-0.00644162
116142:-0.00559143
116143:-0.00493554
116176:-0.00454786
116177:-0.00369374
116178:-0.00397823
116240:-0.00391148
116241:-0.00264261
116242:-0.00423017
116244:-0.00443682
116245:-0.00631565
116246:-0.00567198
116247:-0.0059175
116248:-0.0089313
116249:-0.00866427
116250:-0.007347
116251:-0.0049918
116252:-0.00618766
116253:-0.00613025
116254:-0.0066599
116255:-0.0043216
116321:-0.0061896
116322:-0.00408507
116323:-0.00513079
121005:-0.771162
121006:-0.233158
121007:-0.798606
121008:-0.828616
121009:-0.958809
121010:-0.289581
121011:-0.476424
121012:-0.721014
121013:-0.675607
121014:-0.728916
121015:-0.686927
121016:-0.65046
121017:-0.891475
121018:-1.15819
121019:-1.0778
121020:-0.429645
121021:-1.07264
121022:-0.866269
121023:-0.671723
121024:-0.683279
121025:-0.542764
121026:-0.722836
123300:-0.00251881
125240:-0.00764446
125241:-0.00763872
125242:-0.00630168
125253:-0.00743937
125254:-0.00636197
125255:-0.0057733
125860:-0.00342839
125861:-0.00483364
125912:-0.00495832
125914:-0.00483842
125915:-0.00421973
125970:-0.0024061
126060:-0.00391998
126061:-0.00367659
126063:-0.00512126
126592:-0.00221564
126593:-0.00315073
126594:-0.00492769
126737:-0.00457441
126738:-0.00228916
127138:-0.00225786
127144:-0.00735679
127145:-0.00378413
127146:-0.00429942
127147:-0.00517739
127148:-0.00528899
127149:-0.00411726
127150:-0.00697091
127151:-0.00638358
127188:-0.0037031
127189:-0.00394039
127191:-0.00379404
127248:-0.00202911
127249:-0.00544136
127250:-0.00504295
127251:-0.00693262
127252:-0.00229815
127253:-0.00721737
127254:-0.00427807
127255:-0.00397791
127336:-0.00398094
127337:-0.00316798
127338:-0.00468778
127872:-0.00859572
127873:-0.00830652
127874:-0.00364118
127876:-0.00529326
127877:-0.00631704
127878:-0.00870139
127879:-0.0036302
127993:-0.00582435
127994:-0.00444566
127995:-0.00554934
128012:-0.00742496
128014:-0.00702108
128015:-0.00521837
128112:-0.00665218
128113:-0.00655249
128114:-0.00427711
128115:-0.00840768
128116:-0.00611309
128117:-0.0101596
128672:-0.00596652
128673:-0.00602046
128675:-0.00768791
128730:-0.00563583
128732:-0.0096174
128733:-0.0051146
128734:-0.00687364
128735:-0.0068721
128820:-0.00239038
128821:-0.00316165
128822:-0.00356607
128840:-0.00152407
128841:-0.00400727
128842:-0.00283304
128843:-0.00313768
129152:-0.00276222
129153:-0.0026396
129154:-0.00210236
129155:-0.0028359
129156:-0.00234372
129157:-0.00123087
129160:-0.00193548
129161:-0.00237787
129162:-0.00199168
129163:-0.0038743
129164:-0.00268455
129165:-0.00314668
129166:-0.00213741
129167:-0.00258514
129268:-0.0025231
129270:-0.00172456
129271:-0.00178493
129288:-0.00316603
129289:-0.00359293
129291:-0.00356335
129392:-0.00459007
129393:-0.00362591
129394:-0.00693964
129395:-0.00434938
129396:-0.00629298
129397:-0.00280389
129398:-0.00296039
129399:-0.00393764
129402:-0.00127141
129404:-0.00443288
129405:-0.00381781
129406:-0.00400939
129407:-0.00457238
129948:-0.00389741
129949:-0.00307895
129950:-0.00456717
130016:-0.0027714
130017:-0.00655914
130018:-0.00479384
130019:-0.00486908
130020:-0.00406297
130021:-0.00512343
130022:-0.00597017
130023:-0.00715046
130024:-0.00242954
130025:-0.00433162
130026:-0.00508525
130027:-0.00469811
130093:-0.00372583
130094:-0.00373846
130095:-0.00439169
130128:-0.00359956
130129:-0.00464774
130130:-0.00696895
130131:-0.0029504
130132:-0.00517495
130133:-0.00632855
130134:-0.00520703
130135:-0.00386645
130136:-0.00391374
130137:-0.00546191
130138:-0.00219495
130612:-0.00255543
130613:-0.00495462
130616:-0.00570517
130617:-0.00839388
130618:-0.0037274
130619:-0.00491311
130620:-0.00515639
130621:-0.00414172
130622:-0.00388206
130623:-0.00496213
130624:-0.00466675
130626:-0.00436879
130627:-0.00495721
