Version 8.5.0
Id 
Min label:-10467
Max label:0
bits:18
lda:0
0 ngram:
0 skip:
options: --quadratic nn
Checksum: 4512388
:0
114837:-0.0228361
114838:-0.0103763
114839:-0.0125002
114912:-0.0103381
114913:-0.0170618
114914:-0.0142819
114915:-0.0202887
114916:-0.0109478
114917:-0.00701013
114918:-0.0183224
114919:-0.0145646
114920:-0.0135526
114921:-0.0151176
114922:-0.0206
114923:-0.00902397
114924:-0.0213939
114925:-0.0199803
114926:-0.0226719
114927:-0.0119787
114936:-0.013047
114937:-0.00048993
114938:-0.0114484
114984:4.03601e-06
114986:0.00309282
114987:0.00638721
115012:-0.000419028
115013:0.00455141
115024:0.00532718
115025:0.00747173
115026:0.00441939
115027:0.00139377
115028:0.00300838
115029:0.00588764
115030:0.00270456
115031:0.00874078
115032:0.00151338
115033:0.00445011
115034:0.00314794
115035:0.00469732
115036:0.00321421
115037:0.0037855
115039:0.00446415
115644:0.00131226
115645:-0.000457213
115647:-0.0113917
115648:0.00100348
115649:0.000557902
115650:0.000215391
115651:-0.00191997
115652:-0.0077757
115653:-0.000314178
115654:-0.000318083
115655:-0.00348466
115656:-0.000426168
115657:-0.0113405
115658:-0.000349716
115659:-0.00492295
115660:-0.00215748
115661:-0.00160867
115662:0.000366545
115663:-0.00111087
115666:-0.000439638
116060:-439.914
116128:-0.00258199
116129:-0.00435
116130:-0.00175284
116131:-0.00129362
116132:-0.0108797
116133:-0.00216607
116134:-0.00551315
116135:-0.00274193
116136:-0.00224709
116137:-0.0104946
116138:-0.00588738
116139:-0.00366384
116140:-0.000514477
116141:-0.00214431
116142:-0.00468041
116143:-0.0019303
116176:-0.00274276
116177:-0.000570214
116178:-0.00921071
116240:-0.00117076
116241:-0.00184246
116242:-0.00299703
116244:-0.00220225
116245:-0.00709855
116246:-0.00263439
116247:-0.0135151
116248:-0.00420573
116249:-0.00711961
116250:-0.0124211
116251:-0.0023829
116252:-0.00198188
116253:-0.00467502
116254:-0.00167708
116255:-0.000454977
116321:-0.0140724
116322:-0.000262196
116323:-0.00275746
121005:-2.43246
121006:0.285375
121007:-0.756716
121008:-1.18433
121009:-1.30278
121010:-0.427002
121011:-0.491429
121012:-2.09202
121013:-0.773926
121014:-1.30363
121015:-0.824686
121016:-0.763707
121017:-2.07535
121018:-1.7158
121019:-1.24625
121020:-0.348035
121021:-1.02454
121022:-1.24873
121023:-0.695088
121024:-0.832524
121025:-0.444751
121026:-2.10036
123300:-0.0089777
125240:0.000214233
125241:-0.00260249
125242:-0.00107041
125253:-0.014129
125254:0.00210973
125255:-0.000520069
125860:-0.00285672
125861:-0.0018417
125912:-0.0117284
125914:-0.00300124
125915:-0.000807543
125970:-0.000376518
126060:0.000992926
126061:-0.000604986
126063:-0.0103009
126592:-0.000943836
126594:-0.0104508
126737:-0.00818578
126738:-0.000926209
127138:-0.000845536
127144:-0.000692054
127146:-0.000524078
127147:-0.00307749
127148:-0.00809524
127149:-0.00116347
127150:-0.00201832
127151:-0.00408715
127189:-0.00141883
127191:-0.00801157
127248:-0.000677863
127249:-0.00810114
127250:-0.00303415
127251:-0.00186444
127253:-0.000358423
127254:-0.00232446
127255:-0.000163343
127336:-0.00128358
127337:4.64382e-05
127338:-0.00978072
127872:-0.0129919
127873:-0.0151058
127874:-0.00940141
127876:-0.00728578
127877:-0.0111823
127878:-0.0112876
127879:-0.00405518
127993:-0.0185255
127994:-0.0051307
127995:-0.00858028
128012:-0.0178168
128014:-0.00476287
128015:-0.00123462
128112:-0.00594037
128113:-0.00298037
128114:-0.00107409
128115:-0.00317481
128116:-0.0058485
128117:-0.00616519
128672:0.000531755
128673:-0.00188974
128675:-0.0162156
128730:-0.00199768
128734:-0.000590957
128735:-0.00376007
128821:0.000899918
128822:-0.00601749
128840:-0.00060436
128841:0.000785382
128842:-0.000479504
128843:0.000369878
129152:-0.00339213
129153:-0.001433
129154:-0.00482962
129155:-0.00146546
129156:-0.00373913
129157:-0.000436912
129160:-0.00149108
129161:-0.000636521
129163:-0.00169381
129164:-0.00248539
129165:-0.00152832
129166:-0.00115887
129167:-0.00462214
129268:-0.00582289
129270:-0.000964869
129271:-7.74857e-05
129288:0.000467722
129289:-0.000563835
129291:-0.0070369
129392:-0.00629363
129393:-0.00018873
129394:-0.000580773
129395:-0.00192927
129396:0.000183515
129397:0.000447604
129399:-0.00149686
129402:-0.000260474
129404:-0.000391723
129405:-0.00766543
129406:-0.00051246
129407:-0.00339829
129948:-0.00832817
129949:-0.00548671
129950:-0.016784
130016:-0.00472946
130017:-0.0128622
130018:-0.0113669
130019:-0.00988735
130020:-0.00858661
130021:-0.0162434
130022:-0.0142971
130023:-0.0152958
130024:-0.00861718
130025:-0.00897929
130026:-0.0136377
130027:-0.0100431
130093:-0.00762211
130094:4.79247e-05
130095:-0.00137614
130128:-0.000166746
130129:-0.00252817
130130:-3.50992e-05
130132:-0.00117234
130133:-0.00380984
130134:-0.00763113
130135:-0.00091423
130136:-0.00112147
130137:-0.00488972
130138:-0.00065455
130612:-0.0038605
130613:-0.00469529
130616:-0.00709388
130617:-0.00778648
130618:-0.00337425
130619:-0.0102893
130620:-0.00614983
130621:-0.00311524
130622:-0.00227384
130623:-0.0033828
130624:-0.0124238
130626:-0.0041844
130627:-0.00264716
