Version 8.5.0
Id 
Min label:-10467
Max label:0
bits:18
lda:0
0 ngram:
0 skip:
options: --quadratic nn
Checksum: 4512388
:0
116060:-1105.33
121005:-18.0955
121006:4.71283
121007:-1.20264
121008:-2.11851
121009:-2.38203
121010:-2.09269
121011:-0.750345
121012:-13.1741
121013:-1.1429
121014:-5.49069
121015:-1.3575
121016:-1.13839
121017:-10.4176
121018:-3.31247
121019:-2.30147
121020:-0.405898
121021:-1.73978
121022:-2.26296
121023:-1.05262
121024:-1.31794
121025:-0.645677
121026:-13.8692
