Version 8.5.0
Id 
Min label:-10404.9
Max label:0
bits:18
lda:0
0 ngram:
0 skip:
options: --quadratic nn
Checksum: 3966479081
:0
114837:-0.00617902
114838:-0.00536922
114839:-0.00525785
114912:-0.00556245
114913:-0.00588811
114914:-0.00598122
114915:-0.00532369
114916:-0.00469533
114917:-0.00263359
114918:-0.00659678
114919:-0.00567269
114920:-0.00610467
114921:-0.00580176
114922:-0.00976398
114923:-0.00427364
114924:-0.00907862
114925:-0.00759211
114926:-0.00748185
114927:-0.00516227
114936:-0.00655342
114937:-0.00282256
114938:-0.00297496
114984:-0.00209593
114986:-0.00138741
114987:-0.00200629
115012:-0.00107281
115013:-0.00183773
115024:-0.00273937
115025:-0.00268141
115026:-0.00198453
115027:-0.00190296
115028:-0.00155578
115029:-0.00213864
115030:-0.0010433
115031:-0.00320851
115032:-0.00105557
115033:-0.00183704
115034:-0.00164893
115035:-0.00235468
115036:-0.00221214
115037:-0.00169642
115038:-0.00171477
115039:-0.00192674
115644:-0.00432091
115645:-0.00501963
115647:-0.005642
115648:-0.00697706
115649:-0.00331252
115650:-0.00601214
115651:-0.00581892
115652:-0.00595861
115653:-0.00556807
115654:-0.00975242
115655:-0.0082192
115656:-0.00609029
115657:-0.00575187
115658:-0.00474316
115659:-0.00690325
115660:-0.00730862
115661:-0.00498773
115662:-0.00600392
115663:-0.00229782
115666:-0.00324645
116060:-226.189
116128:-0.00287652
116129:-0.00586724
116130:-0.00228504
116131:-0.00333363
116132:-0.00490446
116133:-0.00420071
116134:-0.00531781
116135:-0.00479701
116136:-0.00422651
116137:-0.00578659
116138:-0.00666655
116139:-0.00686704
116140:-0.00277069
116141:-0.00579661
116142:-0.00553558
116143:-0.00520277
116176:-0.0046117
116177:-0.00332947
116178:-0.00476552
116240:-0.00486926
116241:-0.00264715
116242:-0.0043584
116244:-0.00455371
116245:-0.0064709
116246:-0.00511408
116247:-0.00637872
116248:-0.0069576
116249:-0.00915515
116250:-0.00712638
116251:-0.00506238
116252:-0.00612787
116253:-0.00619415
116254:-0.00667338
116255:-0.00405746
116321:-0.00628935
116322:-0.00429486
116323:-0.00520682
121005:-0.782802
121006:-0.20553
121007:-0.790799
121008:-0.798572
121009:-0.98012
121010:-0.287649
121011:-0.47168
121012:-0.742754
121013:-0.676912
121014:-0.780576
121015:-0.702205
121016:-0.603012
121017:-1.01695
121018:-1.21669
121019:-0.907008
121020:-0.473677
121021:-0.937876
121022:-0.864056
121023:-0.706517
121024:-0.632712
121025:-0.504615
121026:-0.593856
123300:-0.00168172
125240:-0.00754893
125241:-0.00716069
125242:-0.00469844
125253:-0.0073756
125254:-0.00634465
125255:-0.00574685
125860:-0.00336646
125861:-0.00535658
125912:-0.00454078
125914:-0.00467209
125915:-0.0044317
125970:-0.00256349
126060:-0.00413265
126061:-0.00385481
126063:-0.00535879
126592:-0.0018575
126593:-0.0035345
126594:-0.00364228
126737:-0.00483468
126738:-0.00189497
127138:-0.00232809
127144:-0.00656152
127145:-0.00329778
127146:-0.00453993
127147:-0.00543427
127148:-0.00560098
127149:-0.00439101
127150:-0.0064962
127151:-0.00651495
127188:-0.0036745
127189:-0.0036536
127191:-0.00466557
127248:-0.00170588
127249:-0.00569303
127250:-0.00516947
127251:-0.00628316
127252:-0.00217908
127253:-0.00703437
127254:-0.00343983
127255:-0.00357741
127336:-0.00408332
127337:-0.00305471
127338:-0.00421107
127872:-0.00884406
127873:-0.00849671
127874:-0.00467549
127876:-0.00559788
127877:-0.00652334
127878:-0.00907545
127879:-0.00347629
127993:-0.00602932
127994:-0.0046931
127995:-0.00565321
128012:-0.00534455
128014:-0.00609398
128015:-0.00550783
128112:-0.00674102
128113:-0.0062662
128114:-0.00407241
128115:-0.0105657
128116:-0.00663844
128117:-0.0110475
128672:-0.00635098
128673:-0.00615553
128675:-0.0067405
128730:-0.00389199
128732:-0.0102573
128733:-0.00495516
128734:-0.00729202
128735:-0.00508624
128820:-0.00252927
128821:-0.00340199
128822:-0.00373896
128840:-0.00181303
128841:-0.00371853
128842:-0.00268114
128843:-0.00312701
129152:-0.00284414
129153:-0.00296475
129154:-0.00204203
129155:-0.00178458
129156:-0.00231522
129157:-0.00190165
129160:-0.00225715
129161:-0.00250326
129162:-0.00189631
129163:-0.00394607
129164:-0.00281754
129165:-0.00316091
129166:-0.00232934
129167:-0.0026716
129268:-0.00292259
129270:-0.00167143
129271:-0.00222456
129288:-0.00325234
129289:-0.0035462
129291:-0.00364496
129392:-0.00456238
129393:-0.00374152
129394:-0.00608225
129395:-0.00465082
129396:-0.00567529
129397:-0.00292527
129398:-0.00301025
129399:-0.00391341
129402:-0.00124409
129404:-0.00407797
129405:-0.00385142
129406:-0.00326726
129407:-0.00421787
129948:-0.00401248
129949:-0.00408983
129950:-0.00517551
130016:-0.00265913
130017:-0.00668434
130018:-0.00511082
130019:-0.00455274
130020:-0.00423137
130021:-0.00531448
130022:-0.00671994
130023:-0.00742145
130024:-0.00254529
130025:-0.0049117
130026:-0.00452018
130027:-0.00458281
130093:-0.0037137
130094:-0.00412573
130095:-0.00448081
130128:-0.00419668
130129:-0.00466401
130130:-0.00691424
130131:-0.0027659
130132:-0.00522092
130133:-0.00636586
130134:-0.00527706
130135:-0.00392568
130136:-0.0039657
130137:-0.00488951
130138:-0.00218473
130612:-0.0028877
130613:-0.00557218
130616:-0.00787187
130617:-0.00554967
130618:-0.00385216
130619:-0.0062074
130620:-0.00543848
130621:-0.00532509
130622:-0.00368211
130623:-0.00490816
130624:-0.00473106
130626:-0.0054482
130627:-0.00378538
