Version 8.5.0
Id 
Min label:-10404.9
Max label:0
bits:18
lda:0
0 ngram:
0 skip:
options: --quadratic nn
Checksum: 3966479081
:0
114837:-0.0288475
114838:-0.0049932
114839:-0.00568882
114912:-0.00693461
114913:-0.0145994
114914:-0.00938256
114915:-0.0173321
114916:-0.00368317
114918:-0.0144149
114919:-0.00891528
114920:-0.00988552
114921:-0.0102491
114922:-0.0306812
114924:-0.0289448
114925:-0.0204419
114926:-0.0273559
114927:-0.00512458
114936:-0.0122922
115647:-0.00689037
115657:-0.00470084
116060:-894.857
116132:-0.00183873
116178:-0.00351594
116245:-5.82783e-05
116247:-0.0100814
116249:-0.00340056
116250:-0.00531872
116321:-0.012713
121005:-5.07271
121006:0.763854
121007:-2.54571
121008:-2.92419
121009:-3.52393
121010:-1.48544
121011:-1.66134
121012:-4.47645
121013:-2.29831
121014:-3.45993
121015:-2.40426
121016:-2.10986
121017:-4.86661
121018:-4.3881
121019:-3.113
121020:-1.46006
121021:-2.8667
121022:-3.20423
121023:-2.30013
121024:-2.22376
121025:-1.63458
121026:-3.89036
125253:-0.0167319
125912:-0.00256463
126063:-0.0056683
126737:-0.00152389
127191:-0.00203556
127872:-0.0119705
127873:-0.0115056
127877:-0.00340127
127878:-0.00981899
127993:-0.0174387
128012:-0.00682765
128115:-0.00185962
128117:-0.00768194
128675:-0.0152235
129950:-0.0170549
130017:-0.0094032
130018:-0.0035414
130021:-0.00943346
130022:-0.0120535
130023:-0.0154194
130025:-0.00093655
130026:-0.00286797
130616:-0.00593503
130619:-0.00611281
130624:-0.00689695
