Version 8.5.0
Id 
Min label:-10404.9
Max label:0
bits:18
lda:0
0 ngram:
0 skip:
options: --quadratic nn
Checksum: 3966479081
:0
114837:-0.0101612
114838:-0.00706633
114839:-0.00730315
114912:-0.00770526
114913:-0.00869537
114914:-0.00839346
114915:-0.00844243
114916:-0.0064284
114917:-0.00370888
114918:-0.00936204
114919:-0.00807469
114920:-0.00831091
114921:-0.00841312
114922:-0.013626
114923:-0.00571057
114924:-0.0128695
114925:-0.0109901
114926:-0.0113607
114927:-0.00723619
114936:-0.00872944
114937:-0.00249043
114938:-0.00469912
114984:-0.0016305
114986:-0.000485896
114987:-0.000825228
115012:-0.000913365
115013:-0.00049235
115024:-0.00132883
115025:-0.00122258
115026:-0.000785558
115027:-0.00114351
115028:-0.000712829
115029:-0.000573383
115030:-0.000281875
115031:-0.00121595
115032:-0.000571198
115033:-0.000558436
115034:-0.000673535
115035:-0.00104501
115036:-0.00112889
115037:-0.000673241
115038:-0.00128152
115039:-0.000704809
115644:-0.00392289
115645:-0.00507686
115647:-0.00729143
115648:-0.00678685
115649:-0.00300327
115650:-0.00574186
115651:-0.00621868
115652:-0.0069071
115653:-0.00567213
115654:-0.010059
115655:-0.00880089
115656:-0.00626733
115657:-0.00733676
115658:-0.00471057
115659:-0.00760143
115660:-0.007699
115661:-0.00520411
115662:-0.0055527
115663:-0.00223656
115666:-0.00314202
116060:-298.118
116128:-0.00326618
116129:-0.0067821
116130:-0.00241712
116131:-0.00348925
116132:-0.00668987
116133:-0.00472412
116134:-0.00649395
116135:-0.0053669
116136:-0.00477492
116137:-0.00735701
116138:-0.00793118
116139:-0.00784919
116140:-0.00281002
116141:-0.00633187
116142:-0.00658034
116143:-0.00556134
116176:-0.00518125
116177:-0.00339936
116178:-0.00666461
116240:-0.00514463
116241:-0.00293493
116242:-0.00500588
116244:-0.00505539
116245:-0.00789313
116246:-0.00576352
116247:-0.0087053
116248:-0.0079096
116249:-0.0108877
116250:-0.00906296
116251:-0.0057199
116252:-0.00652234
116253:-0.00734943
116254:-0.00725565
116255:-0.00415213
116321:-0.00877703
116322:-0.00437777
116323:-0.0058395
121005:-1.18005
121006:-0.126671
121007:-0.904012
121008:-1.00337
121009:-1.22472
121010:-0.356224
121011:-0.548756
121012:-1.08202
121013:-0.832625
121014:-1.02528
121015:-0.855076
121016:-0.74173
121017:-1.38369
121018:-1.55038
121019:-1.11991
121020:-0.543754
121021:-1.11495
121022:-1.10659
121023:-0.82478
121024:-0.773643
121025:-0.569271
121026:-0.886831
123300:-0.0025984
125240:-0.00761291
125241:-0.00805288
125242:-0.00496711
125253:-0.0100565
125254:-0.00613077
125255:-0.00610183
125860:-0.00400891
125861:-0.00586014
125912:-0.00646488
125914:-0.00536752
125915:-0.00466995
125970:-0.00256338
126060:-0.00376173
126061:-0.00396399
126063:-0.00711602
126592:-0.00195144
126593:-0.00345912
126594:-0.00495105
126737:-0.00605776
126738:-0.00192137
127138:-0.00244724
127144:-0.00689815
127145:-0.00322912
127146:-0.00464625
127147:-0.00625858
127148:-0.00693831
127149:-0.00478031
127150:-0.00717914
127151:-0.00746856
127188:-0.00363154
127189:-0.00393017
127191:-0.00633933
127248:-0.00180701
127249:-0.00707491
127250:-0.00597003
127251:-0.00703405
127252:-0.00210753
127253:-0.00752058
127254:-0.00391846
127255:-0.00365402
127336:-0.00445161
127337:-0.00299065
127338:-0.00574233
127872:-0.0111666
127873:-0.0110318
127874:-0.00637914
127876:-0.00667386
127877:-0.00849314
127878:-0.0111463
127879:-0.00401223
127993:-0.00901276
127994:-0.00532832
127995:-0.00699721
128012:-0.00759273
128014:-0.00700573
128015:-0.00580428
128112:-0.00816212
128113:-0.0068654
128114:-0.00428841
128115:-0.0118917
128116:-0.0080055
128117:-0.0129535
128672:-0.00634496
128673:-0.00682704
128675:-0.009412
128730:-0.004343
128732:-0.0109648
128733:-0.00509999
128734:-0.00764289
128735:-0.0059315
128820:-0.00252064
128821:-0.00290119
128822:-0.00485452
128840:-0.00183596
128841:-0.00345674
128842:-0.00280484
128843:-0.00292922
129152:-0.00338739
129153:-0.00312547
129154:-0.0025866
129155:-0.00193024
129156:-0.00278963
129157:-0.0019283
129160:-0.00252417
129161:-0.00256184
129162:-0.0018803
129163:-0.0042354
129164:-0.00320864
129165:-0.00346823
129166:-0.00238003
129167:-0.00332555
129268:-0.00396801
129270:-0.00174296
129271:-0.00221254
129288:-0.00297307
129289:-0.00358873
129291:-0.00480434
129392:-0.00536187
129393:-0.00377269
129394:-0.00632002
129395:-0.00500815
129396:-0.00569988
129397:-0.00273493
129398:-0.00281795
129399:-0.00420681
129402:-0.00115975
129404:-0.00417905
129405:-0.00492275
129406:-0.00327098
129407:-0.00471283
129948:-0.00532384
129949:-0.00504061
129950:-0.00818717
130016:-0.00335615
130017:-0.00884396
130018:-0.00713171
130019:-0.00583981
130020:-0.0056673
130021:-0.00777214
130022:-0.00935197
130023:-0.0101122
130024:-0.00381064
130025:-0.00658273
130026:-0.00640131
130027:-0.00609243
130093:-0.00507157
130094:-0.00408965
130095:-0.00490492
130128:-0.00431266
130129:-0.00537411
130130:-0.00728584
130131:-0.00282486
130132:-0.0057907
130133:-0.00737659
130134:-0.00656647
130135:-0.00430132
130136:-0.0043229
130137:-0.00578576
130138:-0.00235126
130612:-0.00359881
130613:-0.00661066
130616:-0.00983039
130617:-0.00664999
130618:-0.00454915
130619:-0.00822141
130620:-0.00678162
130621:-0.00600701
130622:-0.00408244
130623:-0.00561062
130624:-0.00689706
130626:-0.00647458
130627:-0.00405289
