Version 8.5.0
Id 
Min label:-10467
Max label:0
bits:18
lda:0
0 ngram:
0 skip:
options: --quadratic nn
Checksum: 4512388
:0
114837:-0.00963865
114838:-0.00686536
114839:-0.00739662
114912:-0.00615035
114913:-0.00869204
114914:-0.00878783
114915:-0.00857699
114916:-0.00672202
114917:-0.00373063
114918:-0.010424
114919:-0.0081183
114920:-0.00824014
114921:-0.00843152
114922:-0.0125026
114923:-0.00564625
114924:-0.0125878
114925:-0.0110024
114926:-0.0103311
114927:-0.00723337
114936:-0.00802375
114937:-0.00252419
114938:-0.00488026
114984:-0.00174561
114986:-0.000655033
114987:-0.00068779
115012:-0.00101941
115013:-0.000665922
115024:-0.00142925
115025:-0.00127277
115026:-0.00095706
115027:-0.00127104
115028:-0.000855982
115029:-0.000705353
115030:-0.000389027
115031:-0.00128821
115032:-0.000500716
115033:-0.000817019
115034:-0.000850983
115035:-0.00113917
115036:-0.00118119
115037:-0.00089918
115038:-0.0015128
115039:-0.000844871
115644:-0.00417488
115645:-0.00507287
115647:-0.007815
115648:-0.00755873
115649:-0.00282305
115650:-0.0056251
115651:-0.00609514
115652:-0.00707484
115653:-0.00554266
115654:-0.00830175
115655:-0.00934779
115656:-0.0059637
115657:-0.00760572
115658:-0.00471771
115659:-0.00776225
115660:-0.00809557
115661:-0.00516982
115662:-0.0057855
115663:-0.00221345
115666:-0.00329573
116060:-287.952
116128:-0.00369092
116129:-0.0067493
116130:-0.00250291
116131:-0.00368721
116132:-0.00648464
116133:-0.00475645
116134:-0.00573946
116135:-0.00535995
116136:-0.00472042
116137:-0.0077001
116138:-0.00784338
116139:-0.00753822
116140:-0.00283915
116141:-0.00680799
116142:-0.00663897
116143:-0.00543076
116176:-0.00520221
116177:-0.00380778
116178:-0.00559745
116240:-0.00427737
116241:-0.00292242
116242:-0.00500104
116244:-0.00506393
116245:-0.00777609
116246:-0.00646672
116247:-0.00823637
116248:-0.010041
116249:-0.0103158
116250:-0.00947043
116251:-0.00575534
116252:-0.00684513
116253:-0.00728587
116254:-0.00702736
116255:-0.00414286
116321:-0.00870528
116322:-0.00416623
116323:-0.00586742
121005:-1.16158
121006:-0.121076
121007:-0.888002
121008:-1.01975
121009:-1.18162
121010:-0.332747
121011:-0.548325
121012:-1.04292
121013:-0.809969
121014:-0.940293
121015:-0.825623
121016:-0.786651
121017:-1.20007
121018:-1.448
121019:-1.28247
121020:-0.440657
121021:-1.20427
121022:-1.0805
121023:-0.784546
121024:-0.822181
121025:-0.589997
121026:-1.05777
123300:-0.00409147
125240:-0.00752684
125241:-0.00819453
125242:-0.00638359
125253:-0.00972605
125254:-0.00579243
125255:-0.00593945
125860:-0.00413727
125861:-0.00540031
125912:-0.00707839
125914:-0.00562325
125915:-0.00439091
125970:-0.00260202
126060:-0.00358116
126061:-0.0039859
126063:-0.00700561
126592:-0.00251637
126593:-0.00317616
126594:-0.00680043
126737:-0.00581086
126738:-0.00235673
127138:-0.00255563
127144:-0.00755448
127145:-0.00355446
127146:-0.00458631
127147:-0.00600756
127148:-0.00668147
127149:-0.00459588
127150:-0.00761316
127151:-0.00738455
127188:-0.00366038
127189:-0.00441038
127191:-0.00523102
127248:-0.00233096
127249:-0.00687666
127250:-0.00588256
127251:-0.00765732
127252:-0.00214879
127253:-0.00748896
127254:-0.00498192
127255:-0.00424114
127336:-0.00446348
127337:-0.00319535
127338:-0.00651056
127872:-0.0107275
127873:-0.0108444
127874:-0.00510975
127876:-0.00652828
127877:-0.00824053
127878:-0.0102782
127879:-0.00398286
127993:-0.0088037
127994:-0.00511845
127995:-0.00700777
128012:-0.0105928
128014:-0.00815677
128015:-0.00543985
128112:-0.00801175
128113:-0.00736248
128114:-0.00421268
128115:-0.00905714
128116:-0.00740153
128117:-0.0116157
128672:-0.00573278
128673:-0.00659535
128675:-0.0105552
128730:-0.00615934
128732:-0.00966857
128733:-0.00463849
128734:-0.00727323
128735:-0.00786738
128820:-0.00229951
128821:-0.00255405
128822:-0.00436419
128840:-0.0014825
128841:-0.00336852
128842:-0.0027961
128843:-0.00277219
129152:-0.00320854
129153:-0.00271837
129154:-0.0027417
129155:-0.0030148
129156:-0.0030174
129157:-0.0013208
129160:-0.00217957
129161:-0.00247952
129162:-0.00164755
129163:-0.00376718
129164:-0.00300847
129165:-0.00334115
129166:-0.00224089
129167:-0.0032205
129268:-0.00338554
129270:-0.00180684
129271:-0.00162324
129288:-0.00301771
129289:-0.00382972
129291:-0.00480428
129392:-0.005557
129393:-0.00380761
129394:-0.00713437
129395:-0.00480936
129396:-0.00624291
129397:-0.00245965
129398:-0.00301019
129399:-0.00434299
129402:-0.001392
129404:-0.00468122
129405:-0.00507376
129406:-0.00424181
129407:-0.00523003
129948:-0.00533873
129949:-0.00387158
129950:-0.00731759
130016:-0.00334872
130017:-0.00852764
130018:-0.00677453
130019:-0.00654868
130020:-0.00558465
130021:-0.00768022
130022:-0.00840497
130023:-0.00973225
130024:-0.0038474
130025:-0.00588909
130026:-0.00737561
130027:-0.00641812
130093:-0.00515895
130094:-0.00368492
130095:-0.00487062
130128:-0.00382875
130129:-0.00535931
130130:-0.0070974
130131:-0.00278649
130132:-0.00564067
130133:-0.00733046
130134:-0.0065423
130135:-0.00431257
130136:-0.00435243
130137:-0.00650233
130138:-0.00248099
130612:-0.00329647
130613:-0.00596247
130616:-0.00713001
130617:-0.00997908
130618:-0.00451805
130619:-0.00660661
130620:-0.00642583
130621:-0.00483011
130622:-0.004002
130623:-0.00553197
130624:-0.00683833
130626:-0.00525309
130627:-0.00535651
