Version 8.5.0
Id 
Min label:-10467
Max label:0
bits:18
lda:0
0 ngram:
0 skip:
options: --quadratic nn
Checksum: 4512388
:0
114837:-0.0228354
114838:-0.0104735
114839:-0.012515
114912:-0.0103916
114913:-0.0170668
114914:-0.0142613
114915:-0.0203067
114916:-0.0109776
114917:-0.00703277
114918:-0.0183225
114919:-0.0145882
114920:-0.0135751
114921:-0.0151469
114922:-0.0206167
114923:-0.00912181
114924:-0.0213809
114925:-0.0199991
114926:-0.0226867
114927:-0.0119939
114936:-0.0131114
114937:-0.000943126
114938:-0.0115865
114984:8.04543e-05
114986:0.00321146
114987:0.00636513
115012:-0.000694641
115013:0.00459595
115024:0.00529114
115025:0.00736522
115026:0.0044878
115027:0.00146393
115028:0.00309773
115029:0.00590759
115030:0.00282463
115031:0.00860558
115032:0.00169526
115033:0.0045143
115034:0.00323812
115035:0.00470995
115036:0.00327256
115037:0.00387647
115039:0.00453495
115644:0.0016313
115645:-0.000517729
115647:-0.0114235
115648:0.00136557
115649:0.00087551
115650:0.000624476
115651:-0.0019945
115652:-0.00785835
115653:-0.000351409
115654:-0.000396716
115655:-0.00354214
115656:-0.000461024
115657:-0.0113701
115658:-0.000422853
115659:-0.00492981
115660:-0.00220426
115661:-0.00169597
115662:0.00082299
115663:-0.00116386
115666:-0.000614342
116060:-437.189
116128:-0.00269502
116129:-0.00438474
116130:-0.00178574
116131:-0.00137672
116132:-0.0109086
116133:-0.00221635
116134:-0.00555158
116135:-0.00276474
116136:-0.00229062
116137:-0.0105187
116138:-0.00592031
116139:-0.00370044
116140:-0.000657841
116141:-0.00221878
116142:-0.00470102
116143:-0.00197397
116176:-0.00277177
116177:-0.000701801
116178:-0.00927611
116240:-0.00125127
116241:-0.00186141
116242:-0.00311305
116244:-0.00226204
116245:-0.00710061
116246:-0.00264915
116247:-0.0135188
116248:-0.00422987
116249:-0.0071378
116250:-0.0124367
116251:-0.00241233
116252:-0.00201167
116253:-0.00471011
116254:-0.00178693
116255:-0.000576733
116321:-0.0140738
116322:-0.000406887
116323:-0.00278913
121005:-2.41311
121006:0.263473
121007:-0.743926
121008:-1.16227
121009:-1.28279
121010:-0.405661
121011:-0.476727
121012:-2.06937
121013:-0.753361
121014:-1.28284
121015:-0.803233
121016:-0.74246
121017:-2.05588
121018:-1.69644
121019:-1.23005
121020:-0.340147
121021:-1.0135
121022:-1.22764
121023:-0.678773
121024:-0.811089
121025:-0.437456
121026:-2.07878
123300:-0.00910538
125240:0.000633453
125241:-0.00266413
125242:-0.00125055
125253:-0.0141536
125254:0.00241737
125255:-0.000584279
125860:-0.00297228
125861:-0.00190026
125912:-0.0117599
125914:-0.00302698
125915:-0.000935253
125970:-0.000534556
126060:0.00133132
126061:-0.000678424
126063:-0.0103201
126592:-0.00107601
126593:9.02523e-05
126594:-0.0104501
126737:-0.00827878
126738:-0.00112928
127138:-0.00097584
127144:-0.00070803
127146:-0.000569401
127147:-0.0030886
127148:-0.00811897
127149:-0.00118414
127150:-0.0020136
127151:-0.00409624
127188:4.67469e-05
127189:-0.00145649
127191:-0.00806624
127248:-0.000812857
127249:-0.00811124
127250:-0.0030844
127251:-0.00184973
127252:0.00010858
127253:-0.000369282
127254:-0.00236911
127255:-0.000217796
127336:-0.00131353
127337:0.0004042
127338:-0.00978544
127872:-0.0130152
127873:-0.0151261
127874:-0.0095301
127876:-0.00734267
127877:-0.0112074
127878:-0.0113479
127879:-0.00419154
127993:-0.0185388
127994:-0.00526482
127995:-0.00859324
128012:-0.0178013
128014:-0.00474836
128015:-0.00137779
128112:-0.00598663
128113:-0.00302698
128114:-0.00121415
128115:-0.00328702
128116:-0.005959
128117:-0.00620316
128672:0.000874937
128673:-0.00191735
128675:-0.0161979
128730:-0.00213733
128732:-8.41724e-05
128733:0.000307679
128734:-0.00063735
128735:-0.00380856
128820:-2.89101e-05
128821:0.00119407
128822:-0.0061282
128840:-0.000811859
128841:0.00109096
128842:-0.000631293
128843:0.000706802
129152:-0.00337755
129153:-0.0014336
129154:-0.00488223
129155:-0.00143213
129156:-0.00389144
129157:-0.000550416
129160:-0.00155873
129161:-0.000655968
129162:0.000168294
129163:-0.00163114
129164:-0.00250712
129165:-0.0015193
129166:-0.00118558
129167:-0.00463836
129268:-0.00583488
129270:-0.00105138
129271:-0.000168737
129288:0.000810381
129289:-0.00061547
129291:-0.00709965
129392:-0.00634644
129393:-0.000235258
129394:-0.000577611
129395:-0.00201325
129396:0.000615276
129397:0.000791898
129398:0.000211234
129399:-0.00156142
129402:-0.00044448
129404:-0.000403298
129405:-0.0077117
129406:-0.000546569
129407:-0.00341536
129948:-0.00837397
129949:-0.00562017
129950:-0.0168065
130016:-0.00486284
130017:-0.0128995
130018:-0.0113988
130019:-0.0099113
130020:-0.00861779
130021:-0.0162772
130022:-0.0143229
130023:-0.0152849
130024:-0.00874317
130025:-0.00900728
130026:-0.0136378
130027:-0.0100497
130093:-0.00768256
130094:0.00041863
130095:-0.00139584
130128:-0.000247915
130129:-0.00256726
130130:-6.57277e-05
130131:0.000161777
130132:-0.00123635
130133:-0.0038255
130134:-0.00766256
130135:-0.000953279
130136:-0.0011645
130137:-0.0048713
130138:-0.000791716
130612:-0.00399051
130613:-0.004695
130616:-0.00714335
130617:-0.00775647
130618:-0.00342756
130619:-0.0103423
130620:-0.00617727
130621:-0.00318099
130622:-0.00237589
130623:-0.00348516
130624:-0.0124496
130626:-0.00421336
130627:-0.00273216
