Version 8.5.0
Id 
Min label:-10404.9
Max label:0
bits:18
lda:0
0 ngram:
0 skip:
options: --quadratic nn
Checksum: 3966479081
:0
116060:-1206.21
121005:-6.89846
121006:0.372953
121007:-3.57488
121008:-3.92116
121009:-4.81273
121010:-1.79225
121011:-2.23761
121012:-5.47391
121013:-3.13704
121014:-4.44407
121015:-3.2675
121016:-2.83522
121017:-6.23333
121018:-6.01403
121019:-4.4729
121020:-2.02658
121021:-4.38298
121022:-4.30136
121023:-3.18601
121024:-2.98403
121025:-2.25492
121026:-4.86229
