Version 8.5.0
Id 
Min label:-10404.9
Max label:0
bits:18
lda:0
0 ngram:
0 skip:
options: --quadratic nn
Checksum: 3966479081
:0
114837:-0.0243478
114838:-0.0106382
114839:-0.0121862
114912:-0.0125822
114913:-0.0166484
114914:-0.0133757
114915:-0.0198366
114916:-0.0105047
114917:-0.00664634
114918:-0.0163049
114919:-0.0142518
114920:-0.0130417
114921:-0.0149218
114922:-0.0213464
114923:-0.00883577
114924:-0.0214008
114925:-0.0194165
114926:-0.024439
114927:-0.0119307
114936:-0.0139609
114937:-0.00114672
114938:-0.0112735
114984:-0.000331607
114986:0.00295377
114987:0.00510918
115012:-0.000638711
115013:0.00436839
115024:0.00501658
115025:0.00567086
115026:0.00437145
115027:0.00133101
115028:0.00294145
115029:0.00633116
115030:0.00256368
115031:0.00881219
115032:0.00150825
115033:0.004894
115034:0.00316404
115035:0.00460557
115036:0.00324762
115037:0.00379669
115038:-0.000207292
115039:0.00452736
115644:0.00104393
115645:-0.000640883
115647:-0.0110793
115648:0.000978074
115649:0.000752733
115650:0.000683433
115651:-0.00219668
115652:-0.0075221
115653:-0.000645414
115654:-0.00113843
115655:-0.00338936
115656:-0.000495093
115657:-0.0108494
115658:-0.000252897
115659:-0.00480962
115660:-0.00222258
115661:-0.00172594
115662:0.00108237
115663:-0.00117791
115666:-0.000665063
116060:-438.448
116128:-0.00240218
116129:-0.00444278
116130:-0.00167671
116131:-0.00111907
116132:-0.0111504
116133:-0.00218902
116134:-0.00616458
116135:-0.00256174
116136:-0.0024723
116137:-0.00982466
116138:-0.00582189
116139:-0.0041254
116140:-0.000668321
116141:-0.00202282
116142:-0.00471606
116143:-0.00193243
116176:-0.00277902
116177:-0.000797774
116178:-0.0113386
116240:-0.00137411
116241:-0.0019123
116242:-0.00325862
116244:-0.00218991
116245:-0.0071502
116246:-0.00241882
116247:-0.0142496
116248:-0.00380832
116249:-0.00748245
116250:-0.0117807
116251:-0.00268462
116252:-0.00191447
116253:-0.00495802
116254:-0.00189853
116255:-0.000744291
116321:-0.0146284
116322:-0.000745964
116323:-0.00283788
121005:-2.37034
121006:0.24527
121007:-0.73972
121008:-1.10368
121009:-1.30515
121010:-0.403677
121011:-0.449163
121012:-2.07538
121013:-0.74684
121014:-1.33694
121015:-0.778188
121016:-0.69625
121017:-2.27512
121018:-1.74295
121019:-1.07785
121020:-0.402002
121021:-0.893198
121022:-1.23151
121023:-0.674013
121024:-0.742597
121025:-0.417703
121026:-1.73405
123300:-0.00624162
125240:0.00076526
125241:-0.00274794
125242:-0.00098648
125253:-0.0147752
125254:0.00185611
125255:-0.00070995
125860:-0.00304534
125861:-0.00213031
125912:-0.0111296
125914:-0.00298643
125915:-0.00135519
125970:-0.000559504
126060:0.00106573
126061:-0.000637232
126063:-0.0106122
126592:-0.000873223
126593:-7.20988e-05
126594:-0.00798723
126737:-0.00881965
126738:-0.0010845
127138:-0.000823188
127144:-0.000233493
127145:0.000179955
127146:-0.000446882
127147:-0.00313114
127148:-0.00804962
127149:-0.0012711
127150:-0.00200899
127151:-0.00380994
127188:-4.04304e-05
127189:-0.00118143
127191:-0.00990335
127248:-0.000803785
127249:-0.00835172
127250:-0.00324768
127251:-0.00228631
127252:2.89111e-06
127253:-0.000623782
127254:-0.00207915
127255:-0.000333129
127336:-0.00148296
127337:6.84915e-05
127338:-0.00907355
127872:-0.0134884
127873:-0.0148613
127874:-0.011691
127876:-0.00723186
127877:-0.011392
127878:-0.0118483
127879:-0.00410754
127993:-0.0190793
127994:-0.00541269
127995:-0.00846396
128012:-0.0129774
128014:-0.0039846
128015:-0.0016074
128112:-0.00608982
128113:-0.0026509
128114:-0.00123618
128115:-0.00411632
128116:-0.00620671
128117:-0.00723458
128672:-1.49294e-05
128673:-0.00234782
128675:-0.0149936
128730:-0.00197629
128732:-0.000893745
128733:-0.000267801
128734:-0.000960565
128735:-0.00325771
128820:-0.000106082
128821:0.00123667
128822:-0.00706688
128840:-0.0012281
128841:0.000976056
128842:-0.000747335
128843:0.000605358
129152:-0.00335469
129153:-0.00139898
129154:-0.00452505
129155:-0.000870785
129156:-0.00349606
129157:-0.000378407
129160:-0.00188544
129161:-0.000643087
129162:-0.000147435
129163:-0.00149323
129164:-0.00254998
129165:-0.00164824
129166:-0.00127055
129167:-0.00456965
129268:-0.00684004
129270:-0.000953715
129271:-0.000836809
129288:0.000802721
129289:-0.00036193
129291:-0.00749506
129392:-0.00598495
129393:-0.000189978
129394:-0.000561078
129395:-0.00180635
129396:0.000783534
129397:0.00102526
129398:0.000486907
129399:-0.00143105
129402:-0.000327226
129404:-0.000116343
129405:-0.00751001
129406:-0.000116283
129407:-0.0029003
129948:-0.00837434
129949:-0.00727666
129950:-0.0189854
130016:-0.00497844
130017:-0.0129433
130018:-0.0119722
130019:-0.0086536
130020:-0.00882044
130021:-0.0162106
130022:-0.0156682
130023:-0.0157787
130024:-0.00877376
130025:-0.0100041
130026:-0.0116612
130027:-0.00931518
130093:-0.00779131
130094:0.000268766
130095:-0.00138927
130128:-0.000212934
130129:-0.0026401
130131:0.000123199
130132:-0.00158105
130133:-0.00363888
130134:-0.00752966
130135:-0.00110966
130136:-0.00101977
130137:-0.00421199
130138:-0.000791427
130612:-0.00433092
130613:-0.00487554
130616:-0.00949696
130617:-0.00529686
130618:-0.00355571
130619:-0.0124739
130620:-0.00650108
130621:-0.00378547
130622:-0.00229019
130623:-0.00340105
130624:-0.0127931
130626:-0.00514042
130627:-0.00209005
