Version 8.5.0
Id 
Min label:-10467
Max label:0
bits:18
lda:0
0 ngram:
0 skip:
options: --quadratic nn
Checksum: 4512388
:0
114837:-0.0055458
114838:-0.00484522
114839:-0.00482489
114912:-0.00381597
114913:-0.00549381
114914:-0.00602272
114915:-0.00485261
114916:-0.00440911
114917:-0.00192277
114918:-0.00716605
114919:-0.00531587
114920:-0.00564333
114921:-0.00546981
114922:-0.00951269
114923:-0.00401827
114924:-0.00915704
114925:-0.00751707
114926:-0.00651866
114927:-0.0046836
114936:-0.00575905
114937:-0.00271347
114938:-0.00215054
114984:-0.00160355
114986:-0.000723841
114987:-0.0018677
115012:-3.88801e-05
115013:-0.00115081
115024:-0.00253017
115025:-0.00308675
115026:-0.00154867
115027:-0.00132248
115028:-0.000939349
115029:-0.00168986
115030:-0.000257931
115031:-0.00331073
115032:-6.45627e-05
115033:-0.00124873
115034:-0.00105861
115035:-0.00191533
115036:-0.00158157
115037:-0.00119251
115038:-0.00134049
115039:-0.00140652
115644:-0.00439268
115645:-0.00463004
115647:-0.00586802
115648:-0.00839568
115649:-0.00292982
115650:-0.00563204
115651:-0.00552845
115652:-0.00584545
115653:-0.00519285
115654:-0.00864016
115655:-0.00916451
115656:-0.00563835
115657:-0.00575018
115658:-0.00424443
115659:-0.00709561
115660:-0.00780977
115661:-0.00455313
115662:-0.00600828
115663:-0.00153424
115666:-0.00272403
116060:-261.719
116128:-0.0024659
116129:-0.005558
116130:-0.00152696
116131:-0.00278791
116132:-0.00423389
116133:-0.00371248
116134:-0.00427007
116135:-0.00433405
116136:-0.00365375
116137:-0.00580134
116138:-0.00653921
116139:-0.00672961
116140:-0.00226444
116141:-0.0063765
116142:-0.00537099
116143:-0.00465541
116176:-0.00415154
116177:-0.00320364
116178:-0.00343733
116240:-0.0034202
116241:-0.00195262
116242:-0.00374468
116244:-0.00401779
116245:-0.00621483
116246:-0.00547036
116247:-0.00569675
116248:-0.00933573
116249:-0.0089811
116250:-0.00739639
116251:-0.00469546
116252:-0.00614628
116253:-0.005997
116254:-0.00661833
116255:-0.00390446
116321:-0.00603357
116322:-0.0036635
116323:-0.00483304
121005:-0.900914
121006:-0.283815
121007:-0.94148
121008:-0.976996
121009:-1.12902
121010:-0.348274
121011:-0.566356
121012:-0.844127
121013:-0.798062
121014:-0.859333
121015:-0.8128
121016:-0.772166
121017:-1.0469
121018:-1.36476
121019:-1.27446
121020:-0.511074
121021:-1.26497
121022:-1.02166
121023:-0.800661
121024:-0.807744
121025:-0.65065
121026:-0.848468
123300:-0.0017125
125240:-0.00788922
125241:-0.00779379
125242:-0.00621549
125253:-0.00750882
125254:-0.00639204
125255:-0.00560291
125860:-0.00280879
125861:-0.00453513
125912:-0.00459394
125914:-0.00449669
125915:-0.00383214
125970:-0.00164572
126060:-0.00351289
126061:-0.00316914
126063:-0.00485157
126592:-0.00138356
126593:-0.00255622
126594:-0.00457782
126737:-0.0042269
126738:-0.00151617
127138:-0.00144142
127144:-0.00749923
127145:-0.00330159
127146:-0.00392002
127147:-0.00490511
127148:-0.0050097
127149:-0.00368427
127150:-0.00704966
127151:-0.00632704
127188:-0.00322655
127189:-0.00344785
127191:-0.00323849
127248:-0.00118539
127249:-0.0052055
127250:-0.00475723
127251:-0.00704101
127252:-0.00151322
127253:-0.00735393
127254:-0.00385103
127255:-0.00354488
127336:-0.0035089
127337:-0.00260631
127338:-0.00431466
127872:-0.00890831
127873:-0.00853072
127874:-0.00302648
127876:-0.0050572
127877:-0.00619838
127878:-0.00900092
127879:-0.00307278
127993:-0.00558754
127994:-0.00407582
127995:-0.0053115
128012:-0.00749104
128014:-0.00708021
128015:-0.00503598
128112:-0.00661831
128113:-0.0065881
128114:-0.00386631
128115:-0.00869872
128116:-0.00597426
128117:-0.0107964
128672:-0.00595411
128673:-0.00592215
128675:-0.00783513
128730:-0.00545316
128732:-0.0101916
128733:-0.00489951
128734:-0.00700588
128735:-0.00690929
128820:-0.00161465
128821:-0.00261808
128822:-0.00297801
128840:-0.000569538
128841:-0.00355682
128842:-0.00214166
128843:-0.00255533
129152:-0.00210009
129153:-0.00193238
129154:-0.001254
129155:-0.00220869
129156:-0.00152883
129157:-0.000273517
129160:-0.00109525
129161:-0.0016856
129162:-0.00120959
129163:-0.00343274
129164:-0.00200678
129165:-0.00256596
129166:-0.00136888
129167:-0.00188374
129268:-0.00179748
129270:-0.000826385
129271:-0.000970939
129288:-0.00260755
129289:-0.00306138
129291:-0.00298743
129392:-0.00420514
129393:-0.00311724
129394:-0.00706053
129395:-0.00393949
129396:-0.00627015
129397:-0.00215039
129398:-0.00232979
129399:-0.00345781
129402:-0.00027985
129404:-0.0040646
129405:-0.00327786
129406:-0.00355701
129407:-0.00421677
129948:-0.00334388
129949:-0.0024317
129950:-0.004095
130016:-0.00204136
130017:-0.00645855
130018:-0.00438751
130019:-0.00453578
130020:-0.0035567
130021:-0.00474872
130022:-0.00575995
130023:-0.00717643
130024:-0.0015897
130025:-0.00385381
130026:-0.00472977
130027:-0.00429034
130093:-0.003154
130094:-0.00328492
130095:-0.0039756
130128:-0.00307339
130129:-0.00426446
130130:-0.00701397
130131:-0.00229387
130132:-0.00490623
130133:-0.00625354
130134:-0.00490221
130135:-0.00337269
130136:-0.00341443
130137:-0.00523181
130138:-0.00135837
130612:-0.00177326
130613:-0.00464028
130616:-0.00549838
130617:-0.00870555
130618:-0.0031958
130619:-0.00454283
130620:-0.0048569
130621:-0.00370703
130622:-0.00339963
130623:-0.0046218
130624:-0.00425103
130626:-0.00393625
130627:-0.004719
