Version 8.5.0
Id 
Min label:-10404.9
Max label:0
bits:18
lda:0
0 ngram:
0 skip:
options: --quadratic nn
Checksum: 3966479081
:0
116060:-1106.85
121005:-18.1592
121006:4.706
121007:-1.23953
121008:-2.05048
121009:-2.47579
121010:-2.20953
121011:-0.734363
121012:-13.2207
121013:-1.08705
121014:-5.73173
121015:-1.31527
121016:-1.0893
121017:-11.1428
121018:-3.37241
121019:-2.02665
121020:-0.49064
121021:-1.51328
121022:-2.27267
121023:-1.08316
121024:-1.25539
121025:-0.694058
121026:-12.6184
