Version 8.5.0
Id 
Min label:-10467
Max label:0
bits:18
lda:0
0 ngram:
0 skip:
options: --quadratic nn
Checksum: 4512388
:0
114837:-0.0248407
114838:-0.00409065
114839:-0.00587896
114912:-0.000533369
114913:-0.0150511
114914:-0.0112152
114915:-0.0180283
114916:-0.00416417
114918:-0.0189841
114919:-0.00911255
114920:-0.0104423
114921:-0.0103741
114922:-0.0280666
114924:-0.0286576
114925:-0.0212705
114926:-0.0229547
114927:-0.00498595
114936:-0.00926069
115647:-0.00816678
115657:-0.00601505
116060:-892.398
116132:-0.000935275
116137:-0.001008
116247:-0.00810869
116248:-0.000114014
116249:-0.00202905
116250:-0.00689091
116321:-0.0111797
121005:-5.13945
121006:0.782789
121007:-2.56167
121008:-3.05836
121009:-3.47563
121010:-1.42002
121011:-1.68423
121012:-4.46651
121013:-2.31779
121014:-3.30191
121015:-2.44451
121016:-2.28061
121017:-4.38188
121018:-4.27017
121019:-3.65493
121020:-1.25589
121021:-3.26081
121022:-3.21848
121023:-2.30275
121024:-2.41557
121025:-1.7112
121026:-4.65223
125253:-0.0150321
125912:-0.00422006
126063:-0.00454732
126594:-0.00302648
127338:-0.00158026
127872:-0.0109977
127873:-0.0117831
127877:-0.0027876
127878:-0.00819148
127993:-0.015779
128012:-0.019088
128117:-0.00455246
128675:-0.0192326
129950:-0.0117426
130017:-0.00905098
130018:-0.0020622
130019:-0.00181602
130021:-0.00934686
130022:-0.00863777
130023:-0.0144491
130026:-0.00754945
130027:-0.000725422
130617:-0.00658882
130619:-9.74933e-05
130624:-0.00583566
