Version 8.5.0
Id 
Min label:-10467
Max label:0
bits:18
lda:0
0 ngram:
0 skip:
options: --quadratic nn
Checksum: 4512388
:0
116060:-1189.31
121005:-6.84558
121006:0.410893
121007:-3.55233
121008:-4.04848
121009:-4.69881
121010:-1.69729
121011:-2.23482
121012:-5.38412
121013:-3.12301
121014:-4.19624
121015:-3.2526
121016:-3.04911
121017:-5.52615
121018:-5.77443
121019:-5.23873
121020:-1.701
121021:-4.82845
121022:-4.27094
121023:-3.13834
121024:-3.21959
121025:-2.38223
121026:-5.82563
