Version 8.5.0
Id 
Min label:-5.76968e+06
Max label:0
bits:18
lda:0
0 ngram:
0 skip:
options: --quadratic nn
Checksum: 1909307005
:0
114835:-0.538046
114836:-0.530743
114837:-0.583526
114838:-0.537942
114839:-0.506561
114912:-0.938925
114913:-0.495237
114914:-0.463048
114915:-1.1197
114916:-0.431343
114917:-0.940746
114918:-0.655874
114919:-0.587174
114920:-0.533202
114921:-0.503224
114922:-0.550833
114923:-0.523166
114924:-1.45041
114925:-0.596134
114926:-1.03214
114927:-0.521383
114936:-0.381459
114937:-0.54572
114938:-0.354491
114984:-0.543153
114985:-0.463123
114986:-0.43561
114987:-0.362956
114990:-0.392929
115012:-0.2291
115013:-0.338811
115024:-0.488105
115025:-0.934473
115026:-0.479947
115027:-0.781225
115028:-0.367659
115029:-0.443465
115030:-0.441631
115031:-0.414038
115032:-0.778121
115033:-0.375112
115034:-0.556778
115035:-0.551499
115036:-0.396316
115037:-0.587715
115038:-0.811883
115039:-0.392179
115641:-0.351363
115644:-0.331094
115645:-0.430857
115646:-0.413439
115647:-0.487458
115648:-0.387035
115649:-0.376816
115650:-0.436368
115651:-0.339786
115652:-0.778581
115653:-0.455175
115654:-0.866059
115655:-0.4811
115656:-0.339134
115657:-0.850766
115658:-0.469842
115659:-0.295456
115660:-0.471239
115661:-0.519794
115662:-0.339375
115663:-0.805079
115666:-0.224864
116060:-43391.8
116128:-0.564227
116129:-0.722158
116130:-1.22633
116131:-0.514522
116132:-0.958206
116133:-0.505375
116134:-0.528417
116135:-0.783442
116136:-0.694333
116137:-0.981373
116138:-0.764722
116139:-1.19712
116140:-0.684277
116141:-0.502338
116142:-0.521224
116143:-0.68659
116176:-0.499851
116177:-0.532921
116178:-0.759949
116179:-0.536055
116180:-0.423832
116240:-0.510472
116241:-1.12485
116242:-0.461237
116244:-0.775204
116245:-0.378425
116246:-0.491624
116247:-1.14081
116248:-1.1941
116249:-0.68048
116250:-0.95905
116251:-0.63641
116252:-0.625895
116253:-0.493101
116254:-0.407687
116255:-0.64062
116320:-0.507858
116321:-0.734275
116322:-0.472708
116323:-0.59334
116327:-0.477688
121005:-108.233
121006:-98.9102
121007:-97.5386
121008:-156.138
121009:-140.601
121010:-205.669
121011:-106.407
121012:-189.172
121013:-90.2337
121014:-82.4192
121015:-133.566
121016:-135.812
121017:-176.568
121018:-146.955
121019:-224.325
121020:-131.979
121021:-91.0986
121022:-87.2466
121023:-133.716
121024:-110.504
121025:-88.6287
121026:-142.208
121027:-112.841
121028:-84.5494
123298:-0.536761
123300:-0.478208
123301:-0.585655
123450:-0.297753
123453:-0.4263
123976:-0.184584
125240:-0.441085
125241:-0.418509
125242:-0.202386
125251:-0.41181
125252:-0.430554
125253:-0.602621
125254:-0.39822
125255:-0.456017
125860:-0.191552
125861:-0.482737
125912:-0.421425
125913:-0.408188
125914:-0.410156
125915:-0.330834
125918:-0.38509
125970:-0.413856
126057:-0.428747
126060:-0.415976
126061:-0.439347
126062:-0.455461
126063:-0.665875
126592:-0.286664
126593:-0.420815
126594:-0.507373
126595:-0.496782
126596:-0.402385
126736:-0.378029
126737:-0.52762
126738:-0.189154
126743:-0.366303
127138:-0.594568
127144:-0.686968
127145:-0.674882
127146:-0.701574
127147:-0.657295
127148:-1.32739
127149:-0.727972
127150:-1.53937
127151:-0.802832
127185:-0.674223
127188:-0.585552
127189:-0.730245
127190:-0.768594
127191:-0.916934
127248:-0.427496
127249:-0.863223
127250:-0.588846
127251:-1.15792
127252:-0.589039
127253:-0.475845
127254:-0.451278
127255:-0.557345
127336:-0.509862
127337:-0.44603
127338:-0.522191
127339:-0.479235
127340:-0.447476
127872:-1.78207
127873:-0.94466
127874:-0.879268
127876:-0.754748
127877:-0.659008
127878:-0.774923
127879:-0.847897
127992:-0.699236
127993:-1.06683
127994:-0.682367
127995:-0.890141
127999:-0.861665
128010:-0.439073
128012:-0.622842
128013:-0.576821
128014:-0.56528
128015:-0.473078
128112:-0.468381
128113:-0.651646
128114:-0.647515
128115:-0.579299
128116:-0.500626
128117:-1.29882
128672:-1.01033
128673:-1.18551
128674:-1.03238
128675:-1.27297
128677:-0.781606
128730:-1.27355
128732:-1.12718
128733:-1.19831
128734:-1.06565
128735:-0.776726
128816:-0.411797
128820:-0.51563
128821:-0.467416
128822:-0.657479
128823:-0.511604
128840:-0.404362
128841:-0.421145
128842:-0.449577
128843:-0.536243
129152:-0.790939
129153:-1.31324
129154:-2.23888
129155:-0.795598
129156:-1.07859
129157:-1.05238
129160:-1.05679
129161:-0.963935
129162:-0.939843
129163:-0.881574
129164:-0.986707
129165:-2.33593
129166:-1.01358
129167:-1.43455
129266:-0.770411
129268:-1.20397
129269:-0.955836
129270:-0.99357
129271:-0.768609
129288:-0.340581
129289:-0.470092
129290:-0.434265
129291:-0.522718
129293:-0.357899
129392:-0.793779
129393:-0.482711
129394:-0.956782
129395:-0.532846
129396:-0.351334
129397:-0.43956
129398:-0.470981
129399:-0.386836
129402:-0.266272
129404:-0.365833
129405:-0.913112
129406:-0.734597
129407:-0.379646
129944:-0.910412
129948:-0.920888
129949:-1.02427
129950:-1.17981
129951:-0.753869
130016:-1.013
130017:-0.952777
130018:-0.814751
130019:-0.955836
130020:-0.794001
130021:-1.80317
130022:-1.18223
130023:-2.23593
130024:-0.897827
130025:-0.769089
130026:-0.697859
130027:-1.10628
130091:-0.367212
130092:-0.389322
130093:-0.529359
130094:-0.362952
130095:-0.388327
130128:-0.399978
130129:-0.311423
130130:-0.339184
130131:-0.4229
130132:-0.899953
130133:-0.508244
130134:-0.689294
130135:-0.428136
130136:-0.622111
130137:-0.31618
130138:-0.190403
130612:-0.16629
130613:-0.550011
130616:-0.444965
130617:-0.894068
130618:-0.403802
130619:-0.623075
130620:-0.356124
130621:-0.425737
130622:-0.371745
130623:-0.312549
130624:-0.567904
130625:-0.388494
130626:-0.361662
130627:-0.379579
130630:-0.342458
