Version 8.5.0
Id 
Min label:-5.76968e+06
Max label:0
bits:18
lda:0
0 ngram:
0 skip:
options: --quadratic nn
Checksum: 1909307005
:0
114835:-0.504088
114836:-0.535546
114837:-0.737152
114838:-0.638469
114839:-0.517593
114912:-1.38685
114913:-0.478784
114914:-0.471178
114915:-1.06987
114916:-0.522559
114917:-0.968934
114918:-0.660919
114919:-0.614734
114920:-0.547998
114921:-0.477492
114922:-0.699733
114923:-0.539043
114924:-1.39104
114925:-0.612724
114926:-1.36726
114927:-0.534295
114936:-0.384563
114937:-0.554985
114938:-0.333081
114984:-0.746591
114985:-0.522165
114986:-0.500835
114987:-0.475089
114990:-0.420123
115012:-0.262177
115013:-0.385665
115024:-0.562308
115025:-1.01188
115026:-0.552577
115027:-1.12684
115028:-0.399922
115029:-0.51193
115030:-0.512081
115031:-0.575669
115032:-0.874732
115033:-0.499312
115034:-0.65396
115035:-0.62438
115036:-0.437737
115037:-0.935371
115038:-0.885467
115039:-0.448955
115641:-0.37462
115644:-0.432218
115645:-0.492922
115646:-0.464941
115647:-0.667265
115648:-0.537816
115649:-0.43485
115650:-0.501735
115651:-0.367485
115652:-1.12091
115653:-0.522768
115654:-0.937063
115655:-0.552211
115656:-0.387127
115657:-0.924896
115658:-0.748836
115659:-0.324265
115660:-0.532353
115661:-0.607867
115662:-0.450179
115663:-0.90436
115666:-0.255536
116060:-51304.7
116128:-0.678629
116129:-0.838734
116130:-1.41516
116131:-0.696641
116132:-1.07488
116133:-0.593637
116134:-0.6003
116135:-1.26199
116136:-0.820126
116137:-1.44023
116138:-0.903404
116139:-1.33486
116140:-0.812527
116141:-0.711755
116142:-0.583357
116143:-0.812456
116176:-0.589107
116177:-0.710419
116178:-1.06215
116179:-0.621004
116180:-0.46662
116240:-0.671701
116241:-1.25461
116242:-0.517078
116244:-1.22313
116245:-0.413432
116246:-0.556747
116247:-1.22894
116248:-1.28227
116249:-0.775731
116250:-1.3701
116251:-0.72503
116252:-0.714426
116253:-0.52802
116254:-0.560007
116255:-0.734239
116320:-0.567575
116321:-0.999696
116322:-0.612221
116323:-0.673986
116327:-0.504895
121005:-112.3
121006:-115.041
121007:-113.063
121008:-186.168
121009:-161.832
121010:-235.27
121011:-143.063
121012:-210.121
121013:-105.008
121014:-92.6364
121015:-214.663
121016:-158.968
121017:-257.542
121018:-172.058
121019:-247.956
121020:-155.347
121021:-128.004
121022:-96.4701
121023:-156.821
121024:-129.078
121025:-117.255
121026:-197.392
121027:-129.474
121028:-92.117
123298:-0.702535
123300:-0.745999
123301:-0.795729
123450:-0.332114
123453:-0.447787
123976:-0.188906
125240:-0.615884
125241:-0.565485
125242:-0.32014
125251:-0.544093
125252:-0.591968
125253:-0.955285
125254:-0.605605
125255:-0.632827
125860:-0.199016
125861:-0.529338
125912:-0.560666
125913:-0.436292
125914:-0.449666
125915:-0.415797
125918:-0.390026
125970:-0.481651
126057:-0.463572
126060:-0.547115
126061:-0.509639
126062:-0.51853
126063:-0.918981
126592:-0.331177
126593:-0.54992
126594:-0.697598
126595:-0.563412
126596:-0.433173
126736:-0.488625
126737:-0.794775
126738:-0.273629
126743:-0.453208
127138:-1.00754
127144:-1.23915
127145:-1.07779
127146:-1.12033
127147:-1.03452
127148:-2.44121
127149:-1.16021
127150:-2.35856
127151:-1.28269
127185:-1.01705
127188:-1.00807
127189:-1.16318
127190:-1.21341
127191:-1.62742
127248:-0.495239
127249:-1.25081
127250:-0.682784
127251:-1.26441
127252:-0.686897
127253:-0.663833
127254:-0.492611
127255:-0.647271
127336:-0.589714
127337:-0.585803
127338:-0.720282
127339:-0.544646
127340:-0.482713
127872:-2.47375
127873:-1.3695
127874:-1.40514
127876:-1.09633
127877:-0.927026
127878:-1.28463
127879:-1.2373
127992:-1.00227
127993:-1.72926
127994:-1.07547
127995:-1.28574
127999:-1.1744
128010:-0.473939
128012:-0.857979
128013:-0.655588
128014:-0.653745
128015:-0.621566
128112:-0.512498
128113:-0.756943
128114:-0.755419
128115:-0.809118
128116:-0.580651
128117:-1.41984
128672:-1.26896
128673:-1.30131
128674:-1.10682
128675:-1.67879
128677:-0.78045
128730:-1.32006
128732:-1.50551
128733:-1.31594
128734:-1.16698
128735:-0.792929
128816:-0.446422
128820:-0.600127
128821:-0.615866
128822:-0.908611
128823:-0.585031
128840:-0.473962
128841:-0.58965
128842:-0.495871
128843:-0.626576
129152:-0.861431
129153:-2.06472
129154:-2.42
129155:-0.893937
129156:-1.20257
129157:-1.36843
129160:-1.12703
129161:-1.0943
129162:-1.07174
129163:-1.1949
129164:-1.12039
129165:-2.49303
129166:-1.14812
129167:-2.05202
129266:-0.815102
129268:-1.61684
129269:-1.05828
129270:-1.1229
129271:-0.983985
129288:-0.499468
129289:-0.626226
129290:-0.570772
129291:-0.800662
129293:-0.451241
129392:-1.2624
129393:-0.644412
129394:-1.22208
129395:-0.711357
129396:-0.547499
129397:-0.588743
129398:-0.629555
129399:-0.497821
129402:-0.39456
129404:-0.487107
129405:-1.16747
129406:-1.27025
129407:-0.493083
129944:-0.931283
129948:-1.01283
129949:-1.28606
129950:-1.56006
129951:-0.810526
130016:-1.12014
130017:-1.2732
130018:-0.834572
130019:-1.05273
130020:-0.873455
130021:-2.51385
130022:-1.29786
130023:-2.30975
130024:-0.940419
130025:-0.837916
130026:-0.734871
130027:-1.69771
130091:-0.392776
130092:-0.439237
130093:-0.72672
130094:-0.474306
130095:-0.446787
130128:-0.461732
130129:-0.337343
130130:-0.472416
130131:-0.490248
130132:-0.976783
130133:-0.585689
130134:-0.996481
130135:-0.493355
130136:-0.994551
130137:-0.349563
130138:-0.218287
130612:-0.17709
130613:-0.855003
130616:-0.495251
130617:-0.935682
130618:-0.448233
130619:-0.878725
130620:-0.37274
130621:-0.474912
130622:-0.416128
130623:-0.424773
130624:-0.761397
130625:-0.422198
130626:-0.401895
130627:-0.483769
130630:-0.351283
