Version 8.5.0
Id 
Min label:-5.76968e+06
Max label:0
bits:18
lda:0
0 ngram:
0 skip:
options: --quadratic nn
Checksum: 1909307005
:0
114835:0.733593
114836:0.369263
114837:-2.42802
114838:-1.34538
114839:0.045825
114912:-2.99642
114913:0.657415
114914:0.271978
114915:1.77543
114916:-1.37482
114917:0.349036
114918:0.632659
114920:0.187893
114921:0.592007
114922:-1.91633
114924:2.34176
114925:0.122642
114926:-2.2865
114927:0.193233
114937:0.453655
114984:-2.32998
114985:0.118069
114987:-0.74643
114990:0.173742
115025:0.97405
115027:-1.93735
115028:0.122221
115031:-1.33973
115032:0.0544802
115033:-1.19958
115035:0.222561
115036:0.193981
115037:-1.68142
115038:0.813194
115644:-0.916441
115647:-2.43732
115648:-1.52938
115652:-2.5584
115654:0.0468072
115657:0.0698386
115658:-1.62905
115661:-0.0799616
115662:-1.30933
116060:-15597.7
116128:-0.965928
116130:-0.959282
116131:-3.04224
116135:-4.20472
116137:-4.73692
116138:-0.28986
116139:-0.052467
116140:-0.582349
116141:-2.88252
116177:-2.61671
116178:-5.27264
116240:-1.88225
116241:0.290685
116242:0.0136426
116244:-2.47806
116245:0.114033
116246:0.132882
116247:1.34948
116248:1.30538
116250:-2.58238
116251:0.119824
116252:0.0986372
116253:0.323462
116254:-1.2842
116320:0.148635
116321:-3.39652
116322:-1.21345
116327:0.307707
121005:114.224
121006:71.3751
121007:-21.438
121008:-263.677
121009:90.1877
121010:-11.032
121011:-648.41
121012:157.48
121013:66.7139
121014:97.2774
121015:-682.927
121016:46.3281
121017:-772.011
121018:-0.232373
121019:158.164
121020:-77.6517
121021:-541.77
121022:96.7988
121023:40.7128
121024:18.8278
121025:-447.256
121026:-935.132
121027:81.0865
121028:101.437
123298:-1.97434
123300:-4.79395
123301:-2.54433
123453:0.241996
125240:-1.6163
125241:-1.25274
125242:-1.31799
125251:-1.11363
125252:-1.39329
125253:-6.08803
125254:-3.19932
125255:-1.73216
125861:0.138487
125912:-1.57225
125913:0.163063
125915:-0.544954
125918:0.362064
126057:0.0595294
126060:-1.1043
126063:-3.23682
126593:-1.13745
126594:-2.318
126736:-0.798847
126737:-4.80935
126738:-1.13297
126743:-0.590054
127138:-2.66541
127144:-7.97012
127145:-2.8183
127146:-2.46034
127147:-1.91125
127148:-10.2298
127149:-2.5404
127150:-5.67303
127151:-3.07738
127185:-1.73217
127188:-5.23955
127189:-2.60096
127190:-2.36656
127191:-8.52089
127249:-2.43074
127251:0.909842
127253:-1.78135
127254:0.098239
127337:-1.22854
127338:-2.36662
127340:0.115753
127872:-5.21897
127873:-3.08408
127874:-4.6591
127876:-2.0953
127877:-1.32682
127878:-6.38132
127879:-3.46214
127992:-1.60791
127993:-9.47953
127994:-5.03171
127995:-2.73098
127999:-1.77074
128012:-3.16451
128015:-1.50193
128115:-2.51741
128117:0.657397
128672:-3.37379
128673:0.720112
128674:1.09319
128675:-6.37823
128677:1.01771
128730:1.2997
128732:-4.83769
128734:0.724901
128735:1.09573
128821:-1.71074
128822:-3.70538
128841:-1.85267
129152:0.475619
129153:-5.2483
129154:1.61925
129155:0.129796
129157:-5.26816
129160:0.703679
129163:-4.18173
129165:1.8535
129167:-4.8619
129266:0.450725
129268:-6.73242
129269:0.24618
129271:-2.8463
129288:-2.71927
129289:-1.87398
129290:-1.47455
129291:-5.54844
129293:-0.916338
129392:-6.61035
129393:-1.89531
129394:-4.15556
129395:-2.33656
129396:-3.47763
129397:-2.03352
129398:-1.83842
129399:-1.17621
129402:-2.17001
129404:-1.12616
129405:-3.76611
129406:-6.29236
129407:-1.06821
129944:1.43241
129948:0.512303
129949:-3.2287
129950:-5.72668
129951:0.714627
130017:-3.76191
130018:1.1724
130019:0.679876
130020:0.492526
130021:-4.77562
130022:0.690441
130023:3.27262
130024:0.839703
130025:0.738752
130026:0.861407
130027:-3.77778
130091:0.111938
130093:-2.20536
130094:-0.719039
130130:-0.94968
130132:0.930893
130134:-1.57003
130136:-1.9325
130137:0.00457468
130613:-1.3012
130617:1.28963
130618:0.0362892
130619:-1.23905
130620:0.245773
130621:0.0576279
130623:-0.715453
130624:-2.25422
130625:0.160419
130627:-0.650149
130630:0.207658
