Version 8.5.0
Id 
Min label:-5.76968e+06
Max label:0
bits:18
lda:0
0 ngram:
0 skip:
options: --quadratic nn
Checksum: 1909307005
:0
114837:-0.518164
114838:-0.721459
114912:-2.60127
114922:-1.35862
114924:1.17193
114984:-0.216984
115647:-1.5964
115648:-0.218658
115652:-2.28503
116060:92867.7
116131:-4.51019
116135:-4.87101
116137:-6.53835
116141:-3.58627
116177:-4.19598
116178:-9.11952
116240:-0.763287
116250:-0.0333856
116321:-2.56557
121005:310.029
121006:137.686
121007:-374.627
121008:-780.577
121009:363.182
121010:653.885
121011:-2181.92
121012:1341.83
121013:55.4221
121014:116.815
121015:-1586.84
121016:184.541
121017:-1751.57
121018:127.933
121019:1523.35
121020:-262.047
121021:-1756.16
121022:71.5775
121023:287.64
121024:-89.214
121025:-1682.78
121026:-2413.08
121027:140.945
121028:82.8145
123298:-0.0783364
123300:-5.71722
123301:-1.07261
125253:-11.1019
125254:-4.87595
125255:-0.674696
126063:-1.8245
126594:-0.53186
126737:-8.64229
127144:-24.883
127145:-0.924858
127148:-14.0823
127150:-2.96381
127151:-0.703121
127188:-12.7681
127189:-0.979942
127191:-12.8777
127253:-0.0982136
127872:-1.00233
127873:-0.982961
127874:-3.07479
127878:-10.2605
127879:-5.24937
127993:-15.7498
127994:-9.08936
127995:-2.26489
127999:-0.360624
128012:-1.84095
128015:-0.0923828
128115:-2.29507
128672:-4.88422
128675:-5.98576
128730:3.43486
128732:-6.45666
128821:-1.14498
128822:-4.11659
128841:-0.26202
129153:-2.17183
129154:6.02711
129157:-9.75479
129163:-5.95434
129165:8.90927
129167:-1.29306
129268:-8.60798
129271:-3.71179
129288:-3.59647
129289:-1.41526
129291:-11.8126
129392:-11.8948
129393:-0.831623
129394:-5.67156
129395:-2.07675
129396:-7.38201
129397:-1.28703
129398:-0.16364
129402:-1.08003
129405:-4.48109
129406:-9.98322
129949:-4.53724
129950:-5.24605
130017:-3.54223
130023:12.4101
130027:-0.242124
130093:-0.214188
130624:-0.742378
