Version 8.5.0
Id 
Min label:-5.76968e+06
Max label:0
bits:18
lda:0
0 ngram:
0 skip:
options: --quadratic nn
Checksum: 1909307005
:0
114835:0.157366
114836:-0.0363041
114837:-1.35522
114838:-0.926407
114839:-0.0787238
114912:-2.60514
114913:0.0875313
114914:-0.0317247
114915:0.252747
114916:-0.857737
114917:-0.141285
114918:-0.0387814
114919:-0.273026
114920:-0.107442
114921:0.122551
114922:-1.2514
114923:-0.157425
114924:0.365523
114925:-0.131061
114926:-2.26696
114927:-0.0899209
114936:-0.0515616
114937:-0.0411939
114938:0.0377095
114984:-1.47194
114985:-0.236696
114986:-0.262984
114987:-0.760243
114990:-0.0673045
115012:-0.12368
115013:-0.20524
115024:-0.33165
115025:-0.217646
115026:-0.304761
115027:-2.02517
115028:-0.0888393
115029:-0.292246
115030:-0.33156
115031:-1.09955
115032:-0.420936
115033:-0.897423
115034:-0.516893
115035:-0.286921
115036:-0.126306
115037:-1.86895
115038:-0.21769
115039:-0.213449
115641:-0.0909314
115644:-0.714247
115645:-0.291013
115646:-0.24029
115647:-1.35053
115648:-1.05172
115649:-0.308903
115650:-0.31797
115651:-0.112106
115652:-2.05956
115653:-0.321691
115654:-0.26279
115655:-0.363146
115656:-0.206895
115657:-0.28202
115658:-1.52992
115659:-0.116055
115660:-0.280755
115661:-0.517248
115662:-0.830913
115663:-0.494466
115666:-0.153995
116060:-44151.5
116128:-0.735718
116129:-0.652752
116130:-1.13678
116131:-1.40012
116132:-0.622145
116133:-0.46932
116134:-0.379421
116135:-2.74152
116136:-0.707447
116137:-2.85766
116138:-0.812227
116139:-0.753017
116140:-0.773561
116141:-1.50178
116142:-0.344353
116143:-0.715975
116176:-0.493531
116177:-1.29381
116178:-2.31273
116179:-0.484215
116180:-0.243641
116240:-1.19363
116241:-0.602661
116242:-0.236663
116244:-2.42488
116245:-0.113018
116246:-0.25852
116247:-0.283133
116248:-0.260008
116249:-0.451048
116250:-2.43478
116251:-0.393166
116252:-0.399525
116253:-0.113308
116254:-1.05978
116255:-0.467888
116320:-0.253753
116321:-1.95778
116322:-0.972735
116323:-0.349976
116327:-0.0789345
121005:-35.3639
121006:-77.3957
121007:-83.2426
121008:-181.461
121009:-107.178
121010:-161.215
121011:-275.352
121012:-95.444
121013:-70.9809
121014:-47.1272
121015:-450.782
121016:-118.982
121017:-491.57
121018:-135.179
121019:-108.203
121020:-130.354
121021:-259.926
121022:-44.3852
121023:-120.234
121024:-93.6173
121025:-203.548
121026:-412.785
121027:-85.5266
121028:-36.347
123298:-1.26386
123300:-2.11728
123301:-1.56225
123450:-0.148496
123453:-0.0680722
125240:-1.20692
125241:-1.02908
125242:-0.862599
125251:-0.948368
125252:-1.1243
125253:-2.70818
125254:-1.5621
125255:-1.219
125860:-0.00235435
125861:-0.184364
125912:-1.06275
125913:-0.0976691
125914:-0.138297
125915:-0.617101
125918:0.0392688
125970:-0.322178
126057:-0.135428
126060:-0.907821
126061:-0.318872
126062:-0.289104
126063:-1.86
126592:-0.191885
126593:-0.88771
126594:-1.38178
126595:-0.290159
126596:-0.109243
126736:-0.777349
126737:-2.09973
126738:-0.645813
126743:-0.63675
127138:-2.26625
127144:-3.53742
127145:-2.24587
127146:-2.29033
127147:-2.03149
127148:-6.40976
127149:-2.3619
127150:-4.4631
127151:-2.63709
127185:-1.91083
127188:-2.62836
127189:-2.34644
127190:-2.41442
127191:-4.47268
127248:-0.312627
127249:-2.28896
127250:-0.456573
127251:-0.387776
127252:-0.497348
127253:-1.29301
127254:-0.161176
127255:-0.421172
127336:-0.35881
127337:-0.965377
127338:-1.45028
127339:-0.293895
127340:-0.130314
127872:-4.07981
127873:-2.54323
127874:-3.23124
127876:-2.02009
127877:-1.56874
127878:-3.42052
127879:-2.36304
127992:-1.78357
127993:-4.64936
127994:-2.63696
127995:-2.33202
127999:-1.92377
128010:-0.1429
128012:-1.75217
128013:-0.379379
128014:-0.421744
128015:-1.04391
128112:-0.187694
128113:-0.52042
128114:-0.574483
128115:-1.5997
128116:-0.410198
128117:-0.492424
128672:-1.83792
128673:-0.382183
128674:-0.227921
128675:-3.08466
128677:0.0982946
128730:-0.0204341
128732:-2.6859
128733:-0.533624
128734:-0.382823
128735:0.0631556
128816:-0.163994
128820:-0.420329
128821:-1.05676
128822:-1.88213
128823:-0.371122
128840:-0.38605
128841:-1.18739
128842:-0.213606
128843:-0.465587
129152:-0.261301
129153:-4.12412
129154:-0.633988
129155:-0.435022
129156:-0.644893
129157:-2.46125
129160:-0.285745
129161:-0.640033
129162:-0.707237
129163:-2.29276
129164:-0.67383
129165:-0.518226
129166:-0.651071
129167:-3.66291
129266:-0.13866
129268:-3.20969
129269:-0.497741
129270:-0.615746
129271:-1.57298
129288:-1.25992
129289:-1.13862
129290:-1.01918
129291:-2.25078
129293:-0.726875
129392:-3.26745
129393:-1.18637
129394:-2.01501
129395:-1.3285
129396:-1.5201
129397:-1.12138
129398:-1.16522
129399:-0.84456
129402:-1.03986
129404:-0.871083
129405:-1.9235
129406:-3.378
129407:-0.836316
129944:0.0812954
129948:-0.31461
129949:-1.84106
129950:-2.86586
129951:-0.181662
130016:-0.482637
130017:-2.25513
130018:0.0383182
130019:-0.367363
130020:-0.285978
130021:-4.11035
130022:-0.471272
130023:0.0622043
130024:-0.0439327
130025:-0.208289
130026:-0.0436271
130027:-3.22099
130091:-0.0690402
130092:-0.202416
130093:-1.42446
130094:-0.753336
130095:-0.238806
130128:-0.26516
130129:-0.0784909
130130:-0.897939
130131:-0.318056
130132:-0.211789
130133:-0.346501
130134:-1.77325
130135:-0.273819
130136:-1.98819
130137:-0.101951
130138:-0.104675
130612:-0.0222395
130613:-1.64079
130616:-0.207661
130617:-0.0206135
130618:-0.168627
130619:-1.51934
130620:-0.00727832
130621:-0.190525
130622:-0.202284
130623:-0.773328
130624:-1.43516
130625:-0.113205
130626:-0.14461
130627:-0.72471
130630:0.00131154
