Version 8.5.0
Id 
Min label:-5.76968e+06
Max label:0
bits:18
lda:0
0 ngram:
0 skip:
options: --quadratic nn
Checksum: 1909307005
:0
114835:-0.538067
114836:-0.530774
114837:-0.583553
114838:-0.53798
114839:-0.506604
114912:-0.938818
114913:-0.495273
114914:-0.463109
114915:-1.11947
114916:-0.431434
114917:-0.940602
114918:-0.655846
114919:-0.587181
114920:-0.533235
114921:-0.503257
114922:-0.550868
114923:-0.523205
114924:-1.45001
114925:-0.596135
114926:-1.03198
114927:-0.521421
114936:-0.381561
114937:-0.545742
114938:-0.354607
114984:-0.543202
114985:-0.46319
114986:-0.435692
114987:-0.363079
114990:-0.393025
115012:-0.229279
115013:-0.338935
115024:-0.488161
115025:-0.934326
115026:-0.480006
115027:-0.781183
115028:-0.367761
115029:-0.443543
115030:-0.44171
115031:-0.414139
115032:-0.778056
115033:-0.375231
115034:-0.556802
115035:-0.551525
115036:-0.396406
115037:-0.587758
115038:-0.811796
115039:-0.392278
115641:-0.351478
115644:-0.331231
115645:-0.430939
115646:-0.413528
115647:-0.487529
115648:-0.387146
115649:-0.376925
115650:-0.436447
115651:-0.339902
115652:-0.778535
115653:-0.455245
115654:-0.865939
115655:-0.481159
115656:-0.339258
115657:-0.850658
115658:-0.469932
115659:-0.295596
115660:-0.471302
115661:-0.519835
115662:-0.339509
115663:-0.805
115666:-0.225043
116060:-43371.4
116128:-0.564254
116129:-0.72211
116130:-1.22607
116131:-0.514582
116132:-0.958061
116133:-0.505424
116134:-0.528445
116135:-0.783408
116136:-0.694298
116137:-0.981254
116138:-0.764655
116139:-1.19686
116140:-0.684248
116141:-0.502402
116142:-0.521254
116143:-0.686559
116176:-0.499908
116177:-0.532971
116178:-0.759908
116179:-0.536091
116180:-0.423917
116240:-0.510534
116241:-1.12464
116242:-0.461311
116244:-0.775172
116245:-0.378529
116246:-0.491679
116247:-1.14058
116248:-1.19385
116249:-0.680451
116250:-0.958941
116251:-0.636402
116252:-0.625892
116253:-0.493144
116254:-0.407794
116255:-0.640611
116320:-0.507908
116321:-0.734245
116322:-0.472784
116323:-0.593352
116327:-0.477747
121005:-108.181
121006:-98.863
121007:-97.4917
121008:-156.065
121009:-140.535
121010:-205.577
121011:-106.359
121012:-189.086
121013:-90.1907
121014:-82.3785
121015:-133.511
121016:-135.749
121017:-176.494
121018:-146.886
121019:-224.222
121020:-131.917
121021:-91.0578
121022:-87.203
121023:-133.654
121024:-110.452
121025:-88.5887
121026:-142.146
121027:-112.787
121028:-84.5084
123298:-0.536809
123300:-0.478302
123301:-0.585687
123450:-0.297901
123453:-0.426381
123976:-0.184782
125240:-0.441177
125241:-0.418599
125242:-0.202588
125251:-0.411909
125252:-0.430649
125253:-0.602658
125254:-0.398338
125255:-0.456102
125860:-0.191742
125861:-0.482785
125912:-0.421519
125913:-0.408272
125914:-0.410241
125915:-0.330965
125918:-0.385179
125970:-0.413952
126057:-0.428829
126060:-0.416079
126061:-0.439431
126062:-0.455535
126063:-0.665873
126592:-0.286819
126593:-0.420916
126594:-0.507441
126595:-0.496837
126596:-0.40248
126736:-0.378147
126737:-0.527688
126738:-0.189362
126743:-0.366423
127138:-0.59462
127144:-0.686985
127145:-0.674894
127146:-0.701572
127147:-0.657286
127148:-1.32718
127149:-0.72796
127150:-1.53905
127151:-0.80279
127185:-0.674226
127188:-0.585607
127189:-0.730228
127190:-0.768564
127191:-0.916865
127248:-0.427585
127249:-0.863152
127250:-0.588859
127251:-1.15768
127252:-0.589052
127253:-0.475921
127254:-0.451342
127255:-0.557373
127336:-0.509912
127337:-0.446118
127338:-0.522252
127339:-0.479298
127340:-0.447549
127872:-1.78164
127873:-0.944556
127874:-0.879212
127876:-0.754722
127877:-0.659006
127878:-0.774899
127879:-0.847832
127992:-0.699232
127993:-1.06671
127994:-0.682382
127995:-0.890059
127999:-0.861584
128010:-0.439149
128012:-0.62286
128013:-0.576838
128014:-0.565305
128015:-0.473154
128112:-0.468437
128113:-0.65163
128114:-0.647502
128115:-0.579329
128116:-0.500683
128117:-1.29851
128672:-1.01018
128673:-1.18525
128674:-1.03219
128675:-1.27272
128677:-0.781524
128730:-1.27327
128732:-1.12698
128733:-1.19806
128734:-1.06545
128735:-0.776634
128816:-0.411888
128820:-0.515678
128821:-0.467496
128822:-0.657482
128823:-0.511653
128840:-0.404465
128841:-0.421246
128842:-0.449643
128843:-0.536282
129152:-0.790855
129153:-1.31301
129154:-2.2382
129155:-0.795526
129156:-1.07842
129157:-1.05222
129160:-1.05658
129161:-0.963796
129162:-0.939716
129163:-0.881487
129164:-0.986557
129165:-2.33521
129166:-1.01342
129167:-1.43427
129266:-0.770342
129268:-1.20376
129269:-0.955695
129270:-0.993417
129271:-0.768569
129288:-0.340725
129289:-0.470172
129290:-0.434359
129291:-0.52279
129293:-0.358024
129392:-0.793751
129393:-0.482785
129394:-0.956655
129395:-0.532899
129396:-0.351473
129397:-0.439654
129398:-0.47106
129399:-0.386942
129402:-0.266449
129404:-0.365956
129405:-0.913006
129406:-0.734595
129407:-0.379758
129944:-0.910269
129948:-0.920757
129949:-1.02411
129950:-1.1796
129951:-0.753812
130016:-1.01283
130017:-0.952651
130018:-0.814646
130019:-0.955689
130020:-0.793929
130021:-1.80273
130022:-1.18198
130023:-2.23523
130024:-0.897717
130025:-0.769022
130026:-0.697812
130027:-1.10613
130091:-0.367321
130092:-0.389424
130093:-0.529413
130094:-0.363075
130095:-0.388431
130128:-0.400077
130129:-0.311555
130130:-0.339318
130131:-0.422989
130132:-0.899821
130133:-0.508291
130134:-0.68929
130135:-0.428221
130136:-0.622135
130137:-0.31631
130138:-0.190601
130612:-0.166495
130613:-0.550062
130616:-0.445035
130617:-0.893927
130618:-0.403893
130619:-0.623091
130620:-0.356226
130621:-0.425817
130622:-0.371852
130623:-0.312692
130624:-0.567931
130625:-0.38859
130626:-0.361773
130627:-0.379689
130630:-0.342573
