Version 8.5.0
Id 
Min label:-5.76968e+06
Max label:0
bits:18
lda:0
0 ngram:
0 skip:
options: --quadratic nn
Checksum: 1909307005
:0
114837:-1.24095
114838:-0.952212
114912:-2.80389
114916:-0.640712
114917:-0.145114
114919:-0.127306
114922:-1.29548
114924:-0.0375125
114925:-0.00493392
114926:-2.41245
114984:-1.35164
114985:-0.0141876
114986:-0.000163668
114987:-0.505606
115024:-0.113228
115025:-0.257869
115026:-0.0804432
115027:-1.98853
115029:-0.0110612
115030:-0.0531239
115031:-0.942832
115032:-0.34508
115033:-0.622818
115034:-0.392255
115035:-0.162377
115037:-1.69735
115038:-0.202727
115644:-0.426221
115645:-0.0573612
115647:-1.18765
115648:-0.87614
115650:-0.0640216
115652:-2.0884
115653:-0.100861
115654:-0.316232
115655:-0.176446
115657:-0.385735
115658:-1.24987
115660:-0.079935
115661:-0.384215
115662:-0.521556
115663:-0.517205
116060:-101035
116128:-0.566036
116129:-0.705912
116130:-1.4356
116131:-1.31879
116132:-0.683323
116133:-0.280189
116134:-0.262857
116135:-2.76291
116136:-0.729962
116137:-2.96704
116138:-0.921948
116139:-0.952182
116140:-0.78677
116141:-1.46074
116142:-0.230528
116143:-0.722919
116176:-0.279106
116177:-1.3028
116178:-2.44514
116179:-0.319172
116240:-1.11057
116241:-0.816747
116244:-2.44367
116246:-0.0561349
116247:-0.547417
116248:-0.472541
116249:-0.455396
116250:-2.5274
116251:-0.344033
116252:-0.331455
116254:-0.854456
116255:-0.428725
116320:-0.0559627
116321:-2.06308
116322:-0.881257
116323:-0.277853
121005:-176.969
121006:-217.783
121007:-230.186
121008:-388.255
121009:-295.206
121010:-362.795
121011:-448.199
121012:-286.828
121013:-200.718
121014:-171.456
121015:-609.802
121016:-301.966
121017:-674.631
121018:-331.418
121019:-314.872
121020:-308.905
121021:-418.537
121022:-178.573
121023:-299.41
121024:-249.002
121025:-357.201
121026:-608.328
121027:-243.651
121028:-158.587
123298:-1.14846
123300:-1.87329
123301:-1.49395
125240:-1.06315
125241:-0.93186
125242:-0.355602
125251:-0.794784
125252:-0.987747
125253:-2.85489
125254:-1.47853
125255:-1.128
125861:-0.0201407
125912:-0.810377
125915:-0.345883
126060:-0.716355
126061:-0.0247832
126062:-0.0165073
126063:-1.87243
126593:-0.729675
126594:-1.19986
126595:-0.111227
126736:-0.541619
126737:-2.1061
126738:-0.109578
126743:-0.394901
127138:-2.04056
127144:-3.69473
127145:-2.1509
127146:-2.22167
127147:-2.04341
127148:-6.7503
127149:-2.32823
127150:-4.80667
127151:-2.68739
127185:-1.86817
127188:-2.62456
127189:-2.36009
127190:-2.46421
127191:-4.70678
127249:-2.29248
127250:-0.340825
127251:-0.579056
127252:-0.393188
127253:-1.21511
127255:-0.264696
127336:-0.170708
127337:-0.830276
127338:-1.26235
127339:-0.059397
127872:-4.3381
127873:-2.62233
127874:-3.09778
127876:-1.90204
127877:-1.46327
127878:-3.63524
127879:-2.35707
127992:-1.64308
127993:-4.90701
127994:-2.70233
127995:-2.41389
127999:-2.00638
128012:-1.69922
128013:-0.279419
128014:-0.307859
128015:-0.952208
128113:-0.487161
128114:-0.543854
128115:-1.69982
128116:-0.166219
128117:-0.802506
128672:-2.30607
128673:-0.676581
128674:-0.349923
128675:-3.45489
128732:-3.32324
128733:-0.772273
128734:-0.474539
128820:-0.244567
128821:-0.96111
128822:-1.88922
128823:-0.185935
128840:-0.0240923
128841:-1.01278
128842:-0.00264247
128843:-0.283056
129152:-0.272931
129153:-4.39524
129154:-1.24748
129155:-0.39374
129156:-0.490441
129157:-2.92119
129160:-0.632913
129161:-0.693009
129162:-0.747961
129163:-2.62837
129164:-0.744411
129165:-0.981434
129166:-0.762505
129167:-3.79378
129266:-0.085961
129268:-3.57646
129269:-0.600363
129270:-0.764412
129271:-1.7404
129288:-1.01959
129289:-1.02102
129290:-0.83904
129291:-2.19637
129293:-0.43152
129392:-3.4102
129393:-1.06428
129394:-2.30304
129395:-1.28286
129396:-1.30296
129397:-0.927752
129398:-1.01956
129399:-0.636729
129402:-0.617955
129404:-0.585516
129405:-2.23242
129406:-3.53315
129407:-0.602697
129944:-0.0503761
129948:-0.41638
129949:-2.40928
129950:-3.23972
129951:-0.088088
130016:-0.632255
130017:-2.72691
130018:-0.0330328
130019:-0.441977
130020:-0.195658
130021:-4.55142
130022:-0.776677
130023:-0.39068
130025:-0.161836
130027:-3.31669
130093:-1.29266
130094:-0.503468
130130:-0.605005
130131:-0.0200907
130132:-0.238274
130133:-0.166727
130134:-1.65021
130136:-1.88375
130613:-1.4602
130617:-0.0937568
130619:-1.35225
130623:-0.454109
130624:-1.40207
130627:-0.53086
