Version 8.5.0
Id 
Min label:-5.76968e+06
Max label:0
bits:18
lda:0
0 ngram:
0 skip:
options: --quadratic nn
Checksum: 1909307005
:0
116060:413548
121005:113.452
121006:359.306
121007:-375.763
121008:-1473.51
121009:405.89
121010:-1270.7
121011:-6497.39
121012:331.375
121013:210.949
121014:145.471
121015:-7296.14
121016:534.616
121017:-7485.37
121018:150.841
121019:437.863
121020:-349.15
121021:-5992.36
121022:150.212
121023:662.982
121024:-139.791
121025:-4638.99
121026:-9574.75
121027:292.34
121028:134.711
127144:-6.61456
127148:-22.9868
127150:-0.767069
127191:-12.06
127993:-18.8106
128675:-0.861914
129268:-3.95976
