Version 8.5.0
Id 
Min label:-5.76968e+06
Max label:0
bits:18
lda:0
0 ngram:
0 skip:
options: --quadratic nn
Checksum: 1909307005
:0
114835:-0.50409
114836:-0.535534
114837:-0.737139
114838:-0.638463
114839:-0.517574
114912:-1.38689
114913:-0.478778
114914:-0.471152
114915:-1.06995
114916:-0.52252
114917:-0.968982
114918:-0.660932
114919:-0.61473
114920:-0.547983
114921:-0.477486
114922:-0.699728
114923:-0.539023
114924:-1.39119
114925:-0.612721
114926:-1.36731
114927:-0.534276
114936:-0.384518
114937:-0.554978
114938:-0.333022
114984:-0.746569
114985:-0.522138
114986:-0.500799
114987:-0.475038
114990:-0.420087
115012:-0.262091
115013:-0.38561
115024:-0.562285
115025:-1.01193
115026:-0.552551
115027:-1.12684
115028:-0.399881
115029:-0.511895
115030:-0.512044
115031:-0.575629
115032:-0.874748
115033:-0.49926
115034:-0.653951
115035:-0.62437
115036:-0.437704
115037:-0.935347
115038:-0.885495
115039:-0.448912
115641:-0.374574
115644:-0.432162
115645:-0.492889
115646:-0.464906
115647:-0.667237
115648:-0.537774
115649:-0.434801
115650:-0.501701
115651:-0.367439
115652:-1.12092
115653:-0.52274
115654:-0.937109
115655:-0.552189
115656:-0.387075
115657:-0.924939
115658:-0.748793
115659:-0.324206
115660:-0.532327
115661:-0.607855
115662:-0.450122
115663:-0.904389
115666:-0.255453
116060:-51314.8
116128:-0.678613
116129:-0.838755
116130:-1.41525
116131:-0.696617
116132:-1.07492
116133:-0.593618
116134:-0.600295
116135:-1.262
116136:-0.820142
116137:-1.44027
116138:-0.903434
116139:-1.33494
116140:-0.812541
116141:-0.711732
116142:-0.583351
116143:-0.81247
116176:-0.58908
116177:-0.710404
116178:-1.06217
116179:-0.620987
116180:-0.466587
116240:-0.671676
116241:-1.25469
116242:-0.51704
116244:-1.22314
116245:-0.413388
116246:-0.556724
116247:-1.22903
116248:-1.28236
116249:-0.775742
116250:-1.37013
116251:-0.725033
116252:-0.714428
116253:-0.528008
116254:-0.559961
116255:-0.734243
116320:-0.567552
116321:-0.999709
116322:-0.612192
116323:-0.673983
116327:-0.504876
121005:-112.326
121006:-115.065
121007:-113.088
121008:-186.204
121009:-161.864
121010:-235.31
121011:-143.088
121012:-210.158
121013:-105.03
121014:-92.6583
121015:-214.69
121016:-159
121017:-257.575
121018:-172.093
121019:-248
121020:-155.378
121021:-128.026
121022:-96.4935
121023:-156.852
121024:-129.104
121025:-117.277
121026:-197.424
121027:-129.501
121028:-92.1391
123298:-0.702522
123300:-0.745952
123301:-0.795716
123450:-0.332043
123453:-0.447758
123976:-0.188815
125240:-0.615849
125241:-0.565457
125242:-0.320047
125251:-0.544061
125252:-0.591931
125253:-0.955277
125254:-0.605561
125255:-0.632798
125860:-0.198928
125861:-0.529325
125912:-0.560625
125913:-0.436261
125914:-0.449634
125915:-0.415745
125918:-0.389998
125970:-0.481603
126057:-0.463541
126060:-0.547073
126061:-0.509599
126062:-0.518496
126063:-0.91898
126592:-0.331102
126593:-0.549881
126594:-0.697565
126595:-0.56339
126596:-0.433136
126736:-0.488577
126737:-0.794752
126738:-0.273532
126743:-0.453166
127138:-1.00751
127144:-1.23915
127145:-1.07777
127146:-1.12033
127147:-1.03453
127148:-2.44127
127149:-1.16021
127150:-2.35865
127151:-1.2827
127185:-1.01706
127188:-1.00804
127189:-1.16318
127190:-1.21342
127191:-1.62745
127248:-0.495197
127249:-1.25083
127250:-0.682776
127251:-1.26449
127252:-0.68689
127253:-0.663805
127254:-0.492588
127255:-0.647258
127336:-0.589692
127337:-0.58577
127338:-0.720252
127339:-0.544617
127340:-0.482687
127872:-2.47387
127873:-1.36953
127874:-1.40514
127876:-1.09633
127877:-0.927023
127878:-1.28464
127879:-1.23732
127992:-1.00226
127993:-1.7293
127994:-1.07546
127995:-1.28576
127999:-1.17444
128010:-0.47391
128012:-0.857969
128013:-0.65558
128014:-0.653736
128015:-0.621537
128112:-0.512478
128113:-0.756951
128114:-0.755426
128115:-0.809115
128116:-0.580623
128117:-1.41995
128672:-1.26902
128673:-1.3014
128674:-1.10688
128675:-1.67888
128677:-0.780483
128730:-1.32012
128732:-1.5056
128733:-1.31603
128734:-1.16705
128735:-0.792962
128816:-0.446385
128820:-0.600107
128821:-0.615837
128822:-0.90861
128823:-0.585009
128840:-0.473911
128841:-0.589608
128842:-0.495848
128843:-0.626558
129152:-0.861471
129153:-2.06479
129154:-2.42022
129155:-0.893961
129156:-1.2026
129157:-1.36849
129160:-1.12712
129161:-1.09435
129162:-1.07177
129163:-1.19494
129164:-1.12044
129165:-2.49325
129166:-1.14818
129167:-2.0521
129266:-0.815132
129268:-1.61691
129269:-1.05833
129270:-1.12296
129271:-0.984001
129288:-0.499408
129289:-0.626196
129290:-0.570732
129291:-0.800632
129293:-0.451191
129392:-1.26241
129393:-0.644382
129394:-1.22212
129395:-0.711339
129396:-0.54744
129397:-0.588702
129398:-0.629521
129399:-0.49778
129402:-0.394479
129404:-0.487054
129405:-1.16752
129406:-1.27025
129407:-0.493041
129944:-0.931353
129948:-1.01288
129949:-1.28614
129950:-1.56013
129951:-0.810539
130016:-1.1202
130017:-1.27326
130018:-0.834616
130019:-1.05278
130020:-0.873469
130021:-2.51399
130022:-1.29795
130023:-2.30997
130024:-0.94043
130025:-0.837937
130026:-0.73489
130027:-1.69775
130091:-0.392735
130092:-0.439192
130093:-0.726697
130094:-0.474255
130095:-0.446741
130128:-0.461687
130129:-0.337287
130130:-0.472359
130131:-0.490208
130132:-0.976827
130133:-0.585669
130134:-0.996475
130135:-0.493317
130136:-0.994538
130137:-0.349508
130138:-0.218192
130612:-0.176995
130613:-0.854977
130616:-0.495225
130617:-0.935741
130618:-0.448197
130619:-0.878714
130620:-0.372705
130621:-0.474881
130622:-0.416083
130623:-0.424716
130624:-0.761395
130625:-0.42216
130626:-0.40185
130627:-0.483731
130630:-0.351241
