Version 8.5.0
Id 
Min label:-5.76968e+06
Max label:0
bits:18
lda:0
0 ngram:
0 skip:
options: --quadratic nn
Checksum: 1909307005
:0
114835:0.160112
114836:-0.036777
114837:-1.35581
114838:-0.926586
114839:-0.079245
114912:-2.6053
114913:0.0905598
114914:-0.0321941
114915:0.255332
114916:-0.858329
114917:-0.141954
114918:-0.0391892
114919:-0.273613
114920:-0.108061
114921:0.125415
114922:-1.2516
114923:-0.158053
114924:0.36821
114925:-0.131605
114926:-2.26735
114927:-0.0905588
114936:-0.0522166
114937:-0.0415777
114938:0.0399462
114984:-1.47212
114985:-0.236872
114986:-0.263252
114987:-0.76059
114990:-0.0677965
115012:-0.124594
115013:-0.205672
115024:-0.331923
115025:-0.217725
115026:-0.305015
115027:-2.02517
115028:-0.0892533
115029:-0.29261
115030:-0.331922
115031:-1.09975
115032:-0.421034
115033:-0.897821
115034:-0.516997
115035:-0.287
115036:-0.126497
115037:-1.8692
115038:-0.21787
115039:-0.213724
115641:-0.0914423
115644:-0.714617
115645:-0.291164
115646:-0.240497
115647:-1.35072
115648:-1.05191
115649:-0.30934
115650:-0.318216
115651:-0.112507
115652:-2.05932
115653:-0.321872
115654:-0.262692
115655:-0.36329
115656:-0.207251
115657:-0.281858
115658:-1.53031
115659:-0.116529
115660:-0.280917
115661:-0.517293
115662:-0.831334
115663:-0.49426
115666:-0.154782
116060:-44048.8
116128:-0.736088
116129:-0.652708
116130:-1.13658
116131:-1.4003
116132:-0.622533
116133:-0.469451
116134:-0.379401
116135:-2.74163
116136:-0.707422
116137:-2.85767
116138:-0.812097
116139:-0.753251
116140:-0.773549
116141:-1.50192
116142:-0.344524
116143:-0.715972
116176:-0.493853
116177:-1.2938
116178:-2.31267
116179:-0.484436
116180:-0.244259
116240:-1.1938
116241:-0.602537
116242:-0.237205
116244:-2.42496
116245:-0.113456
116246:-0.258662
116247:-0.283197
116248:-0.260158
116249:-0.451073
116250:-2.43477
116251:-0.393241
116252:-0.399625
116253:-0.113525
116254:-1.06018
116255:-0.467939
116320:-0.254013
116321:-1.95774
116322:-0.972885
116323:-0.350001
116327:-0.0793842
121005:-35.1622
121006:-77.1149
121007:-82.9345
121008:-181.096
121009:-106.841
121010:-160.897
121011:-275.04
121012:-95.1864
121013:-70.7049
121014:-46.8617
121015:-450.514
121016:-118.648
121017:-491.269
121018:-134.831
121019:-107.928
121020:-130.026
121021:-259.647
121022:-44.1325
121023:-119.905
121024:-93.3153
121025:-203.266
121026:-412.457
121027:-85.2187
121028:-36.135
123298:-1.26422
123300:-2.11789
123301:-1.56238
123450:-0.149245
123453:-0.0685134
123976:0.0016101
125240:-1.20718
125241:-1.02924
125242:-0.863535
125251:-0.948718
125252:-1.12449
125253:-2.70804
125254:-1.56227
125255:-1.21911
125860:-0.00337358
125861:-0.184577
125912:-1.06324
125913:-0.0979929
125914:-0.138619
125915:-0.61754
125918:0.0421366
125970:-0.322789
126057:-0.135975
126060:-0.908136
126061:-0.319299
126062:-0.289484
126063:-1.86008
126592:-0.192675
126593:-0.887905
126594:-1.3821
126595:-0.290286
126596:-0.109751
126736:-0.777687
126737:-2.09978
126738:-0.646758
126743:-0.637205
127138:-2.26677
127144:-3.53725
127145:-2.2461
127146:-2.29052
127147:-2.03147
127148:-6.40952
127149:-2.36204
127150:-4.46324
127151:-2.63713
127185:-1.91107
127188:-2.62843
127189:-2.34639
127190:-2.4143
127191:-4.47252
127248:-0.313198
127249:-2.28907
127250:-0.45678
127251:-0.387894
127252:-0.497487
127253:-1.29317
127254:-0.161486
127255:-0.42141
127336:-0.359035
127337:-0.965586
127338:-1.4507
127339:-0.294205
127340:-0.130811
127872:-4.08034
127873:-2.54328
127874:-3.2317
127876:-2.02039
127877:-1.56898
127878:-3.4203
127879:-2.36317
127992:-1.78381
127993:-4.64924
127994:-2.63693
127995:-2.33186
127999:-1.92385
128010:-0.14346
128012:-1.75239
128013:-0.379464
128014:-0.421861
128015:-1.04407
128112:-0.187999
128113:-0.520473
128114:-0.574533
128115:-1.59958
128116:-0.410672
128117:-0.492476
128672:-1.83745
128673:-0.381935
128674:-0.227941
128675:-3.08474
128677:0.101053
128730:-0.0217749
128732:-2.68528
128733:-0.533661
128734:-0.383074
128735:0.0661802
128816:-0.164578
128820:-0.420526
128821:-1.05689
128822:-1.88222
128823:-0.37133
128840:-0.386669
128841:-1.18771
128842:-0.21391
128843:-0.46587
129152:-0.261068
129153:-4.12405
129154:-0.634399
129155:-0.434903
129156:-0.645594
129157:-2.46065
129160:-0.285238
129161:-0.640109
129162:-0.707328
129163:-2.2924
129164:-0.673957
129165:-0.518904
129166:-0.651063
129167:-3.66321
129266:-0.139005
129268:-3.20951
129269:-0.497576
129270:-0.615511
129271:-1.5728
129288:-1.26034
129289:-1.13875
129290:-1.01944
129291:-2.25097
129293:-0.727447
129392:-3.26732
129393:-1.18658
129394:-2.0149
129395:-1.3286
129396:-1.52052
129397:-1.12172
129398:-1.16548
129399:-0.844892
129402:-1.04062
129404:-0.87144
129405:-1.92335
129406:-3.37782
129407:-0.836568
129944:0.0843607
129948:-0.31467
129949:-1.84044
129950:-2.86591
129951:-0.182027
130016:-0.48279
130017:-2.25475
130018:0.0415079
130019:-0.367624
130020:-0.286479
130021:-4.11059
130022:-0.471311
130023:0.0643681
130024:-0.045127
130025:-0.208367
130026:-0.043754
130027:-3.2214
130091:-0.0695302
130092:-0.202746
130093:-1.42458
130094:-0.753608
130095:-0.239142
130128:-0.265562
130129:-0.0790269
130130:-0.898345
130131:-0.318377
130132:-0.211709
130133:-0.346605
130134:-1.7733
130135:-0.27413
130136:-1.9882
130137:-0.102374
130138:-0.105632
130612:-0.0232458
130613:-1.64096
130616:-0.20789
130617:-0.0204367
130618:-0.168955
130619:-1.51947
130620:-0.00758308
130621:-0.190779
130622:-0.202712
130623:-0.773776
130624:-1.43508
130625:-0.113475
130626:-0.144982
130627:-0.724872
130630:0.00414721
