Version 8.5.0
Id 
Min label:-5.76968e+06
Max label:0
bits:18
lda:0
0 ngram:
0 skip:
options: --quadratic nn
Checksum: 1909307005
:0
114836:-0.0102752
114837:-1.32239
114838:-0.934151
114839:-0.0463227
114912:-2.62994
114916:-0.815192
114917:-0.119011
114918:-0.0302552
114919:-0.242169
114920:-0.0682337
114922:-1.25624
114923:-0.116494
114925:-0.104907
114926:-2.27424
114927:-0.0482594
114937:-0.0232797
114984:-1.44943
114985:-0.210028
114986:-0.227213
114987:-0.718805
114990:-0.0314272
115012:-0.018492
115013:-0.150543
115024:-0.29767
115025:-0.219101
115026:-0.272284
115027:-2.01706
115028:-0.0456543
115029:-0.247852
115030:-0.287652
115031:-1.0738
115032:-0.403254
115033:-0.850838
115034:-0.501888
115035:-0.27358
115036:-0.097028
115037:-1.83629
115038:-0.210771
115039:-0.171288
115641:-0.0503403
115644:-0.670492
115645:-0.267773
115646:-0.21066
115647:-1.3269
115648:-1.02789
115649:-0.256957
115650:-0.285985
115651:-0.0696828
115652:-2.07661
115653:-0.296764
115654:-0.281886
115655:-0.343229
115656:-0.156886
115657:-0.312477
115658:-1.48229
115659:-0.0573347
115660:-0.258336
115661:-0.508455
115662:-0.781867
115663:-0.509295
115666:-0.0623091
116060:-55518.3
116128:-0.69873
116129:-0.661217
116130:-1.16394
116131:-1.38333
116132:-0.60741
116133:-0.446056
116134:-0.377831
116135:-2.73166
116136:-0.712946
116137:-2.85751
116138:-0.830692
116139:-0.756215
116140:-0.777638
116141:-1.48916
116142:-0.335932
116143:-0.718812
116176:-0.45794
116177:-1.29712
116178:-2.3245
116179:-0.458877
116180:-0.20055
116240:-1.17804
116241:-0.619219
116242:-0.178142
116244:-2.41649
116245:-0.061304
116246:-0.233763
116247:-0.307168
116248:-0.269628
116249:-0.451057
116250:-2.43462
116251:-0.386294
116252:-0.389277
116253:-0.0985703
116254:-1.01654
116255:-0.463468
116320:-0.223114
116321:-1.96669
116322:-0.957298
116323:-0.345672
116327:-0.0565569
121005:-63.5112
121006:-107.37
121007:-116.084
121008:-222.171
121009:-144.625
121010:-196.614
121011:-309.911
121012:-128.847
121013:-99.6209
121014:-75.4842
121015:-480.374
121016:-156.018
121017:-524.601
121018:-174.055
121019:-143.288
121020:-166.575
121021:-290.914
121022:-73.7384
121023:-156.592
121024:-126.41
121025:-234.61
121026:-449.386
121027:-118.903
121028:-64.4074
123298:-1.25428
123300:-2.05472
123301:-1.5483
123450:-0.0627579
123453:-0.0408833
125240:-1.17781
125241:-1.01889
125242:-0.759976
125251:-0.932281
125252:-1.10135
125253:-2.72455
125254:-1.54532
125255:-1.20535
125861:-0.169043
125912:-1.01733
125913:-0.0666051
125914:-0.107927
125915:-0.574608
125970:-0.255211
126057:-0.0991115
126060:-0.874183
126061:-0.270172
126062:-0.245035
126063:-1.85477
126592:-0.102778
126593:-0.865357
126594:-1.34549
126595:-0.271371
126596:-0.0738202
126736:-0.738633
126737:-2.0957
126738:-0.541449
126743:-0.606097
127138:-2.21023
127144:-3.55498
127145:-2.21963
127146:-2.2688
127147:-2.04048
127148:-6.43546
127149:-2.34694
127150:-4.47172
127151:-2.63368
127185:-1.91725
127188:-2.62214
127189:-2.34891
127190:-2.42398
127191:-4.4923
127248:-0.250217
127249:-2.27619
127250:-0.435445
127251:-0.399268
127252:-0.482318
127253:-1.27663
127254:-0.134875
127255:-0.395464
127336:-0.332338
127337:-0.942959
127338:-1.40663
127339:-0.257599
127340:-0.100669
127872:-4.0526
127873:-2.53925
127874:-3.17901
127876:-1.98552
127877:-1.55265
127878:-3.44383
127879:-2.34931
127992:-1.75287
127993:-4.66522
127994:-2.641
127995:-2.34495
127999:-1.95868
128010:-0.106725
128012:-1.73077
128013:-0.36851
128014:-0.407973
128015:-1.0278
128112:-0.163289
128113:-0.516279
128114:-0.570845
128115:-1.61525
128116:-0.360479
128117:-0.516563
128672:-1.91047
128673:-0.428531
128674:-0.241505
128675:-3.1047
128732:-2.77654
128733:-0.554386
128734:-0.377347
128816:-0.122516
128820:-0.396757
128821:-1.04265
128822:-1.87598
128823:-0.3456
128840:-0.318344
128841:-1.15214
128842:-0.187849
128843:-0.434852
129152:-0.279448
129153:-4.13082
129154:-0.648101
129155:-0.432884
129156:-0.569755
129157:-2.53105
129160:-0.36021
129161:-0.632919
129162:-0.698251
129163:-2.33497
129164:-0.663552
129165:-0.492586
129166:-0.654023
129167:-3.62957
129266:-0.144213
129268:-3.23649
129269:-0.511761
129270:-0.638748
129271:-1.59366
129288:-1.21461
129289:-1.12351
129290:-0.991061
129291:-2.2327
129293:-0.683838
129392:-3.28209
129393:-1.16495
129394:-2.04891
129395:-1.31964
129396:-1.47547
129397:-1.08582
129398:-1.13939
129399:-0.815087
129402:-0.957063
129404:-0.825809
129405:-1.96459
129406:-3.39907
129407:-0.806277
129948:-0.327486
129949:-1.93524
129950:-2.89337
129951:-0.156974
130016:-0.492076
130017:-2.32043
130019:-0.363153
130020:-0.251704
130021:-4.12223
130022:-0.500575
130025:-0.203826
130026:-0.0409118
130027:-3.19906
130091:-0.0280626
130092:-0.156099
130093:-1.40495
130094:-0.716459
130095:-0.192353
130128:-0.212846
130129:-0.0180806
130130:-0.847687
130131:-0.274295
130132:-0.220778
130133:-0.326029
130134:-1.7552
130135:-0.231043
130136:-1.97509
130137:-0.0454887
130613:-1.6175
130616:-0.178926
130617:-0.0497834
130618:-0.128663
130619:-1.49892
130621:-0.158072
130622:-0.151373
130623:-0.720767
130624:-1.44236
130625:-0.0772315
130626:-0.0983536
130627:-0.703931
