Version 8.5.0
Id 
Min label:-5.76968e+06
Max label:0
bits:18
lda:0
0 ngram:
0 skip:
options: --quadratic nn
Checksum: 1909307005
:0
114835:0.727865
114836:0.50814
114837:-2.88477
114838:-1.55929
114839:0.319233
114912:-3.31893
114913:0.698695
114914:0.468199
114915:1.44291
114916:-1.74134
114917:0.35101
114918:0.68502
114919:-0.203825
114920:0.454221
114921:0.645375
114922:-2.15341
114923:0.131898
114924:1.80851
114925:0.385274
114926:-2.74992
114927:0.446526
114936:0.229408
114937:0.590537
114938:0.33479
114984:-2.73899
114985:0.39446
114986:0.215282
114987:-1.07009
114990:0.409253
115012:0.160973
115013:0.106572
115024:0.205422
115025:0.998053
115026:0.31856
115027:-2.35553
115028:0.392037
115029:0.287356
115030:0.0126137
115031:-1.63465
115032:0.275285
115033:-1.56512
115034:-0.284832
115035:0.458799
115036:0.424317
115037:-2.07269
115038:0.867716
115039:0.318822
115641:0.170306
115644:-1.13314
115646:0.127623
115647:-2.67224
115648:-1.68898
115649:-0.0434476
115650:0.0618659
115651:0.155176
115652:-2.66422
115653:0.0631043
115654:0.497032
115656:0.0913723
115657:0.46919
115658:-1.88395
115659:0.127081
115660:0.133021
115661:-0.522027
115662:-1.56184
116060:-17389.2
116128:-1.20695
116129:-0.413386
116130:-1.36939
116131:-2.93179
116132:-0.38969
116133:-0.255646
116134:-0.168179
116135:-3.97754
116136:-0.50656
116137:-4.40855
116138:-0.754281
116139:-0.591825
116140:-0.914057
116141:-2.74585
116142:-0.197689
116143:-0.506423
116176:-0.427152
116177:-2.40707
116178:-5.0441
116179:-0.281654
116180:-0.111623
116240:-2.13551
116241:0.359256
116242:0.341123
116244:-2.76825
116245:0.380734
116246:0.400024
116247:1.19781
116248:1.1921
116249:0.276375
116250:-2.92983
116251:0.406117
116252:0.411347
116253:0.482771
116254:-1.58214
116255:0.0261481
116320:0.406572
116321:-3.70406
116322:-1.4293
116323:0.282891
116327:0.470818
121005:53.3398
121006:30.5047
121007:-19.9079
121008:-208.906
121009:36.357
121010:-50.0574
121011:-528.873
121012:88.7089
121013:26.3031
121014:41.1443
121015:-578.754
121016:13.6767
121017:-658.57
121018:-21.0984
121019:91.8412
121020:-66.6209
121021:-431.357
121022:40.3006
121023:13.0364
121024:-6.38402
121025:-335.715
121026:-821.376
121027:31.3055
121028:43.402
123298:-2.52381
123300:-4.7451
123301:-2.95355
123450:0.207376
123453:0.432746
123976:0.139806
125240:-1.8111
125241:-1.6186
125242:-1.53485
125251:-1.51579
125252:-1.69148
125253:-5.59361
125254:-2.9218
125255:-1.92631
125860:0.178628
125861:0.396582
125912:-2.11184
125913:0.38168
125914:0.241388
125915:-0.954183
125918:0.500448
125970:0.16971
126057:0.350326
126060:-1.30584
126061:0.122238
126062:0.280237
126063:-3.46817
126592:0.0135562
126593:-1.3471
126594:-2.66679
126595:0.237603
126596:0.245609
126736:-1.12283
126737:-4.43518
126738:-1.35614
126743:-1.00554
127138:-2.74158
127144:-7.37868
127145:-2.87706
127146:-2.67533
127147:-2.35931
127148:-9.18696
127149:-2.76325
127150:-5.48045
127151:-3.18105
127185:-2.22464
127188:-4.80002
127189:-2.81273
127190:-2.69478
127191:-7.83406
127248:0.181295
127249:-2.69769
127250:0.137949
127251:0.986013
127253:-1.95441
127254:0.367343
127255:0.259172
127336:0.140324
127337:-1.41081
127338:-2.70679
127339:0.298526
127340:0.375924
127872:-5.16688
127873:-3.21813
127874:-4.46661
127876:-2.38787
127877:-1.90166
127878:-5.66733
127879:-3.47622
127992:-2.07486
127993:-8.69099
127994:-4.46033
127995:-2.97786
127999:-2.37259
128010:0.268332
128012:-3.38056
128013:0.23239
128014:0.0371095
128015:-1.60638
128112:0.277931
128113:0.158472
128114:-0.0884477
128115:-2.52449
128117:0.804407
128672:-2.99508
128673:0.796515
128674:1.02213
128675:-6.30627
128677:0.930177
128730:1.30723
128732:-4.38966
128733:0.312149
128734:0.885623
128735:1.02724
128816:0.0806005
128820:-0.0162962
128821:-1.72699
128822:-3.76219
128823:0.0187555
128840:-0.171746
128841:-1.95153
128842:0.0814733
129152:0.476928
129153:-5.05962
129154:1.15297
129155:0.316021
129156:-0.158209
129157:-4.90331
129160:0.524784
129161:0.17417
129162:-0.261188
129163:-3.90857
129165:1.48455
129166:0.159883
129167:-4.78358
129266:0.457697
129268:-6.59481
129269:0.347375
129271:-2.65769
129288:-2.59827
129289:-2.09353
129290:-1.80933
129291:-5.24588
129293:-1.38868
129392:-5.94229
129393:-2.10399
129394:-3.96001
129395:-2.44435
129396:-3.34995
129397:-2.14752
129398:-2.0435
129399:-1.60018
129402:-2.26704
129404:-1.51493
129405:-3.67452
129406:-5.6655
129407:-1.51981
129944:1.16991
129948:0.659113
129949:-2.91293
129950:-5.79263
129951:0.794658
130016:0.272654
130017:-3.55756
130018:1.03193
130019:0.826474
130020:0.698658
130021:-4.83668
130022:0.80153
130023:2.53969
130024:0.921114
130025:0.798491
130026:0.80699
130027:-3.89716
130091:0.364102
130092:0.304353
130093:-2.64174
130094:-1.05864
130095:0.169021
130128:0.241792
130129:0.286511
130130:-1.32601
130131:0.00687456
130132:0.945924
130133:0.206026
130134:-2.0432
130135:0.267347
130136:-2.32233
130137:0.311953
130138:0.11488
130612:0.148619
130613:-1.82195
130616:0.267428
130617:1.10071
130618:0.335368
130619:-1.84412
130620:0.425035
130621:0.351339
130622:0.0639764
130623:-1.17091
130624:-2.78423
130625:0.390933
130626:0.221723
130627:-1.04738
130630:0.403306
